code,2012-01-31,2012-02-29,2012-03-30,2012-04-27,2012-05-31,2012-06-29,2012-07-31,2012-08-31,2012-09-28,2012-10-31,2012-11-30,2012-12-31,2013-01-31,2013-02-28,2013-03-29,2013-04-26,2013-05-31,2013-06-28,2013-07-31,2013-08-30,2013-09-30,2013-10-31,2013-11-29,2013-12-31,2014-01-30,2014-02-28,2014-03-31,2014-04-30,2014-05-30,2014-06-30,2014-07-31,2014-08-29,2014-09-30,2014-10-31,2014-11-28,2014-12-31,2015-01-30,2015-02-27,2015-03-31,2015-04-30,2015-05-29,2015-06-30,2015-07-31,2015-08-31,2015-09-30,2015-10-30,2015-11-30,2015-12-31,2016-01-29,2016-02-29,2016-03-31,2016-04-29,2016-05-31,2016-06-30,2016-07-29,2016-08-31,2016-09-30,2016-10-31,2016-11-30,2016-12-30,2017-01-26,2017-02-28,2017-03-31,2017-04-28,2017-05-31,2017-06-30,2017-07-31,2017-08-31,2017-09-29,2017-10-31,2017-11-30,2017-12-29,2018-01-31,2018-02-28,2018-03-30,2018-04-27,2018-05-31,2018-06-29,2018-07-31,2018-08-31,2018-09-28,2018-10-31,2018-11-30,2018-12-28,2019-01-31,2019-02-28,2019-03-29,2019-04-30,2019-05-31,2019-06-28,2019-07-31,2019-08-30,2019-09-30,2019-10-31,2019-11-29
000001.SZ,5.600507694748514,2.037771876957976,-4.058139179822273,2.4023745478156004,-1.848550248662854,0.8146300914380808,1.236968254500344,-3.832469248754692,-2.938458695250412,0.0202266916972493,-3.3925808521076304,8.994421009661174,14.717555591801222,9.701421348850516,-9.769715451712,-4.19591167580306,2.287955946492517,-14.882316317739962,-1.317143445153338,1.288782816229119,-1.4271490209093884,9.725292074518467,0.1767825574543196,-2.0431010355443644,-1.914390191439019,-3.9233458500582543,1.8825087503547435,0.5869074492099358,1.9142148174406373,1.8182882110843173,8.934208548379,-2.357704215289356,-1.615485373308098,7.973178013802533,12.952285831025556,8.15608890102761,-5.011933174224344,0.8615406798601338,6.462079221305927,4.840067021261554,-3.6235530951182633,-6.890368852459016,-8.502054262131265,-6.6374293666188855,-3.5269232537821438,2.231821454283655,-4.217997878763153,-1.1215569849909215,-5.66927648335062,-3.711537493075494,1.832798966358807,-0.8117111622014636,1.8143215595444908,1.028944661519954,2.9313045424032222,1.2752788004909064,-1.5147402139095387,0.383982446516739,2.737883922328014,-1.913230935057928,1.6949152542372952,0.7813745814064716,-1.37133638074752,-0.8492334840630876,4.385317978101776,2.2541653054557407,3.035746218938966,4.396112910689502,-2.0195784460710686,1.3525382048129264,1.3943619278569304,0.7461273340150728,0.8686912197573474,-7.719405728289176,-6.353365694402675,-3.7523285726958218,-5.460624071322444,-7.739152499365637,5.204021635813064,7.617125252310653,8.221928407031966,2.3788298221742634,-1.8009478672985686,-6.0073149957412655,7.04986016009259,8.127023007610887,1.9442566895948616,-0.8376888379752285,-2.5210084033613445,8.43010275006337,1.6108154753343935,-1.8098606199292704,4.68356555313077,-1.79973426742361,-5.61728395061729
000002.SZ,2.334292020600628,4.525658019314525,-0.0301841231512295,5.368143150484017,3.167521748828905,-1.5251989389920246,-1.5309215683588606,-4.739280199548637,2.7672802633182814,0.2107798855766198,3.876061019766135,,,,,,,,,,,,,,,,,,,,,,,,,,,,,,,,,,,,,,,,,,,,,,,,,,,,,,,,,,,,,,,,,,,,,,,,,,,,,,,,,,,,
000006.SZ,3.3305872660939166,9.997912753078689,6.309087401119031,7.9656550199779,0.8985244415134851,-3.904409289801425,-8.195013553465646,-3.3035929587653627,-0.644202180376616,2.241931510224188,-4.761904761904754,11.361079865016883,,,,,,,,,,,,,,,,,,,,,,,,,,,,,,,,,,,,,,,,,,,,,,,,,,,,,,,,,,,,,,,,,,,,,,,,,,,,,,,,,,,
000007.SZ,4.408698242478409,9.077946768060832,2.934617786102935,3.588171655247027,5.083497874903775,-2.84142988084326,8.660640920295803,-2.5000763149058187,,-1.6513761467890005,-10.29192414233965,8.932133850265375,13.814561294337272,-2.0155657553382595,-16.148573250438396,0.7462686567164026,-4.273600585965015,-14.716956843561936,-0.7892550540016676,2.892502518347965,-4.812606473594555,0.404913870015783,-0.8889199972002496,4.298166516381124,-2.481371626998484,-3.271692745376958,-2.3351151481049697,-3.394777879963197,,,,,3.3636674224306597,1.5364459266317323,-1.240544629349455,1.7811704834605673,-0.901209608333617,-1.6381208254039368,17.000152741713748,20.027278927028856,,,,,,,,,,,,,,,,12.39055718622213,7.058745845530783,0.749180583736543,-4.13148541662749,1.200347469004181,,,,,,,,,,,,,,,,,,,,,,,,,,,,,,,,,,,
000008.SZ,3.623883681452505,,,-3.739192686821964,4.795369987598199,10.349488318208142,-10.92553931802366,11.237454887032175,0.7833615832149883,-0.2641120909619854,-7.970573075301057,4.048484848484841,7.746170678336978,6.973857730199369,9.334517728921488,-2.584705087638222,22.946774762072614,-6.06251071367351,4.780159145031086,-6.791642666387397,2.054903626612857,-7.160638453653524,3.870601002532181,-4.661016949152548,0.8116692153864203,5.6043956043956,-3.25372982331077,-4.156984249935438,-6.387076067187326,,,,,7.54983854180566,5.294994491131807,-5.276473488990371,7.366424280746125,2.39366963402572,,,,,-2.3256645394254685,-7.49852391261563,3.663865394846404,20.46745808120468,-6.1891322494733085,0.0424628450106064,-10.037573805689757,-13.332541849697256,11.841084268791075,0.4921490508554274,3.1636250055776283,-2.8459273797841123,-5.189526420266577,-2.340722368625028,4.243989026948526,,0.2391390992427381,-2.6936730006264527,-3.884352240123569,0.246037649482167,1.7521392397694784,-7.551487414187644,-3.9815817984832096,-0.1303244392619561,1.0927130119997277,1.4921614304602502,4.27853802182574,1.3524703284570927,-3.9800713355602175,2.8927563499529767,-1.49307001368152,-4.485154769425162,-5.190934922725072,,-4.517453798767951,,,-0.7375929549636661,-2.1134593993325748,7.4954296160877565,-10.015555821467045,-0.752647021303734,-7.696208951439065,16.53150343106675,0.2821792923811723,-9.081275829183015,-1.9178787488737097,-0.3736022013806479,-1.3795929517825367,-1.2979603480245412,-6.245729123957899,-2.487562189054729,2.616576523899988
000009.SZ,10.16695845253854,-9.634795375298236,-13.36295283663704,-1.409699441439845,1.3824884792626595,-6.542056074766365,-10.04826678367705,-5.294877313818327,-1.3179754125595382,-1.980530379321923,-9.289038110384634,6.498850296502507,6.469298245614032,-2.6657406912762407,0.9067423129527415,-1.5042446507471656,7.39866683227758,-12.378524772980729,1.4960110234280448,-3.820050416909047,0.4192258945110589,-5.069080055841737,4.28761651131822,2.057346508990761,4.511739445652778,6.822090579017758,-4.029137263828824,-6.791438895580481,,,,,-1.7956107293283223,-1.5746537658888178,4.221274598020429,,-0.8007286250996213,11.865407319952764,3.4568207161442155,17.041027116073526,-2.6785069670059936,-22.110792741165245,,,1.6900326483579722,18.742810493895863,12.920983541766654,-0.3163678747849184,-9.752103880278751,-10.044240537440594,8.157075899011385,-3.393241764062016,1.8673023440603973,2.0218192649960858,-3.891495496988569,1.867266591676056,-5.071105217431058,-1.741764483150309,-1.305961158498392,-1.0506208213944794,-4.952276248063567,0.3392618484630252,-4.369590155386383,-8.044717229285391,-5.956112852664587,3.984575835475592,14.405510631925726,-0.4285070904480281,-2.224155745282499,-6.051873198847255,-1.7453135100193964,-0.4612101603909949,-8.960367604824807,0.9526993147250564,-1.787881239381934,-4.566696728703777,-5.0302477832104175,-7.205757030584209,1.2225847022856082,-1.4920070835041437,0.8257279443720091,-0.8386778490379847,0.125944584382855,-7.291890729189076,-6.694176983035304,11.3629006150858,2.263202011735116,-6.962739932254424,0.3553167518849116,0.4132594741932489,0.8252152773834583,1.1433597185575857,-6.646909398814561,-2.0618556701030983,-1.5852047556142623
000010.SZ,,,,5.829995549621715,7.751277683134575,0.2542680711950623,-5.169971671388117,,,-6.174431726583904,2.997902145225682,,,,,,,,,,,1.9372975615718349,-4.605263157894753,4.26862425231103,-1.702400455872918,-2.540106951871664,-10.841503844254792,-8.279829900775459,-3.8884812912692497,16.386182462356082,3.394021128343475,4.32695701277617,-1.1875277830697777,0.471727010966094,-1.0925075958368204,,,,,,,-26.976728476373825,-3.012576776835334,-15.007429420505195,-4.155339805825239,14.05348715259571,-2.1205417363621684,-0.7322227136468551,3.2464732335366087,-8.743512234072881,-2.5560039773059446,3.44227085389215,-4.308586264449529,2.480204175119439,-2.4297405316246885,7.356632554547204,-2.8307336799537874,-5.878088564006518,-2.5644241018245757,2.5948902674938275,-2.8423066411587765,-0.3653738055087207,-2.6351690960005656,-7.921962754951214,-9.314394974050805,-2.17917675544794,-1.03799254257785,2.6577399066747907,4.197098062128736,0.4916256978585178,-8.343755583348223,1.2138188608776863,-13.375796178343954,-1.2537445911461331,-2.549697493517721,-15.353561661674702,-6.472919418758247,1.8361765854928944,6.00868174548777,-0.0978294090864808,-1.00636681043335,-0.882552613713529,-5.431454813470917,-10.965451317765949,-11.483253588516762,8.579293469949514,-8.25446898002103,-6.723032865130241,11.92690487844673,-4.761904761904778,1.1360487669714598,-1.1150234741783835,-1.074635654350065,2.0319930825767503,-3.31087020216819
000011.SZ,0.5780346820809343,15.464806959522608,-11.818899710450134,4.227870737003449,-0.2830674215131368,-1.0320190526594442,-13.355780022446696,-2.37531630071016,-1.6842614231606048,-0.738837134596869,-7.261021921603792,11.802208054734876,,,,,,,,,,,,,,,,,,,,,,,,,,,,,,,,,,,,,,,,,,,,,,,,,,,,,,,,,,,,,,,,,,,,,,,,,,,,,,,,,,,
000012.SZ,6.2251370820342045,0.5183265457238189,-12.925170068027212,3.268391355264554,6.27731078317218,-2.891670263271476,,-10.03503503503504,-2.085347327717156,-1.2483436780807615,-2.9733959311424227,8.125819134993446,,,,,,,,,,,,,,,,,,,,,,,,,,,,,,,,,,,,,,,,,,,,,,,,,,,,,,,,,,,,,,,,,,,,,,,,,,,,,,,,,,,
000014.SZ,1.4937589523224934,6.342640468803849,-8.57142857142858,14.43378387842287,-2.364909499273363,18.448406821135453,-18.08797127468582,-1.776135415424957,-2.675546208669231,-2.7456561703137043,-13.304434811603857,8.108108108108105,,,,,,,,,,,,,,,,,,,,,,,,,,,,,,,,,,,,,,,,,,,,,,,,,,,,,,,,,,,,,,,,,,,,,,,,,,,,,,,,,,,
000016.SZ,-0.5595523581135116,8.068315665488797,-9.686609686609687,1.6600558248861406,-1.336073997944492,-1.3262599469496026,-5.943483893759782,0.7898894154818387,-1.1655011655011638,-1.345291479820618,-7.465135356849887,6.5587590625526895,2.549077058306477,-1.812473241044669,-1.649548708372235,3.995120463555963,-0.0145751348199846,-5.247379815580713,10.73515841279606,0.1564945226916999,-1.52704438418724,6.103023516237389,10.312413602432963,-2.0180225916994434,3.353777893775284,2.1796793910737,-6.9669543254051725,-7.247675590904016,-1.162580427548487,6.093189964157723,12.525846120361296,-2.914657160830362,4.629355443687697,1.862898045333572,0.0647668393782503,-1.0653233132380917,11.260253542132745,19.43269470017417,1.89031990029082,18.475160226725457,,,,,-47.221886044588665,2.639070554743407,2.6637069922308787,-5.387827753816662,-16.708479678876063,6.277056277056282,,-5.3621642587026,5.69105691056911,2.0256655000530146,3.0759828885720166,-1.9068399582582245,-2.4987251402345745,-0.5919575423555762,0.3249390739236493,-5.052631578947363,0.2328417784676653,-0.746596398770327,-1.7418490397498725,2.131438721136787,2.484126100033416,4.142263869662446,6.858658582796506,5.411350637923455,-3.3913994782462256,4.272766508416053,-5.996512773860969,-0.1482946119624508,4.16510318949343,-4.411764705882355,6.929784304726953,-6.941611904222385,-9.21340744483746,4.647835864566719,-3.3689731692555958,-2.316982512243856,3.660034389584856,-1.7428296967201875,-3.3713830634457147,-7.810499359795117,-4.441846873173595,15.902598285947498,7.057358996456963,-9.604519774011306,-0.733608436497013,-1.6508605549701445,2.39640785637748,6.770201407425389,-4.923599320882852,-3.018778226764919,-1.4910779760449724
000017.SZ,8.672566371681402,4.107963814325966,-12.886752778612204,-3.2258064516129163,0.8032761064734775,-4.40402825792875,-12.14317408667356,6.510797207338839,2.930013663276166,17.025026436376475,,,,,,,,,,,,,,,2.174107542274317,-9.37583952717829,9.75715149943824,-0.7173133355070238,-1.7647570199078264,5.562466678514307,1.5262669702335567,2.3728275533687984,11.312270046136767,-3.9488966318234655,4.225352112676055,-9.14485395925365,4.956645528665695,11.75220163984206,12.905839770947,13.021566738308769,39.06177172154743,-12.988307803861137,-2.612347074736542,-21.552802550341,-5.561265273495488,18.273789159865096,-5.869823454716745,-5.377808032675279,3.187213758295164,-10.72530546756077,2.8915067138973534,-2.564305187877821,-0.6404219250329638,1.4340344168259846,,-3.4301944505134383,-0.4456243481558558,1.5713960373491227,-3.35013341239253,4.79041916167663,-7.274116369777643,,-7.414072341191319,-4.290102050926374,-10.029078054621133,0.8984105044920552,-2.5600677843006725,0.3192534381139498,-2.3505876469117326,-4.792662446712311,-4.748324540139745,-5.502210028958999,-4.754151742103571,-2.1837213499368464,-4.346338124572194,-4.603130499212757,-1.478726299555493,-7.632967925294358,16.97165410836026,-4.945885189218416,16.050305067862027,1.6670579948344684,-0.5453962143086274,-12.80871912808718,-12.62975778546713,10.891523935002189,-0.129942454056065,-10.532276330690824,-0.169014084507037,0.3254404668387385,-1.8306636155606344,20.46645982668236,-10.46457062412014,-8.33687792428755,-2.561756633119875
000018.SZ,9.138155045474235,16.087362964221985,-4.324242880819655,-4.5986435119624085,-0.8023340627279456,-2.6315789473684283,-9.92582126457083,5.16949906575317,0.0464612048939156,2.0948347576193105,-2.5706362886907006,1.6562832396292402,5.263157894736846,1.5120229134750016,2.090947217063103,-5.886627906976738,4.665895444279191,-9.681378816549897,-4.451682953311625,4.219677692960137,-0.9131532931805,-10.27773577297243,4.876202832738683,7.503931700741401,0.569155108581533,-1.347194229341243,-6.891303206844076,-1.5848387454283317,1.5984687807149247,,,,,21.85052282285758,6.940748218164031,18.237026131762963,6.4209505334626495,-4.238034648135456,3.113401665352583,1.139718616503658,,-27.360774818401936,-1.8568636295293948,-19.752108311766055,6.172891937230599,12.008432936055891,-4.671891585360529,25.519810189555333,-6.429097628887874,-16.1582945912235,14.889035529468954,-7.7136125005167235,3.41771576603191,,,,,,,,,,,,,,,,,,,,,,,,,,,,,,,,,,,,,,,,,,
000019.SZ,2.31217659003078,0.9840674789128526,16.43524362534713,,,,-11.315865246184847,-3.495168793987819,-3.2490109099628226,-3.469263542300685,-6.872147628811442,,,-2.372317022415114,-1.4031095942358824,-5.066867583349026,4.751354012801572,-11.68055728324419,0.5924673960212877,10.946012877662222,-3.409431361974946,-6.306306306306306,2.760028983597912,-1.358112937812726,0.6418134644271521,0.6056742110296504,2.323861184737746,-3.952802359882001,-2.8139399180180784,4.03897532610405,2.494942683749156,6.111037145519894,6.688963210702345,-1.1394101876675766,3.862761115649424,-6.544327641732994,5.996516546404568,2.693800729325969,6.801406845989984,22.22310064036684,15.412979351032432,-24.001899952501194,-7.90855481056628,-25.62716786319271,-0.7925195279092244,37.77475640154089,-0.9705352472830808,-4.216173702985874,2.2164927017923293,3.427812473507224,-1.909057385187092,-0.1499089838312654,-0.0908265213442327,15.662979907051632,4.0264628721341325,8.318333761892509,4.593163805502011,1.0951979780960277,-7.648755474842422,-5.016133763567041,-5.602825493658706,3.1324066363461625,-4.198401208535282,-9.3709973344411,-8.808628860924989,0.3952886866704075,-2.651095388287445,,,,,,,,,-12.446736936532863,-4.584006462035549,-6.976744186046498,0.570399279495643,-2.20252368539837,0.2844553516649067,-4.621875599309601,-6.295941195270052,-5.77367205542726,-3.718691132351916,8.790544624269707,0.4073807812125588,-9.789789789789786,-0.9495184097274396,0.1238272783996942,-2.570059532452435,2.3005771207209937,-7.185173932857364,-2.0460770098276124,-1.415571284125381
000020.SZ,2.520850904320127,1.1666802643387468,-9.860021535148444,1.3494114269308062,6.6831005204053735,-4.875463698993111,-10.357537781054193,-4.406040790907687,-1.7467248908297015,-2.4850581944007724,-12.546583850931675,5.28097494922139,-0.2063116069381849,0.9931245225362716,-4.077487892516807,-0.2109362323543761,2.6199175930964884,-11.221122112211216,10.829915350379595,2.652916633866026,-0.316217437132948,-6.371522584504936,4.8875096974398815,-0.8627213561374315,2.921383896761942,-0.7496251874062978,0.7053291536050225,,2.3387859943220226,,,,,,,,,,,1.4103425117528603,12.901027611960632,20.72789921395499,,-10.137792490733672,-1.6492205738383887,65.57168591713469,9.125386858441107,0.3605870020964296,,,-0.1879306744623253,-2.853926494194168,-2.074124447466842,6.987168435829877,-6.810923225471013,11.169559880764508,-2.0664869721473504,0.1450063440275676,2.742496561766839,-5.738222540310701,-4.431708295006933,0.4670670098179508,7.76267994080453,-5.5458904400220685,,,,,-3.194179266215987,8.088834555827198,-7.534774696974379,-3.6628540305010855,-12.921348314606748,-3.28316780153533,-6.206209323327006,-5.367626502655868,-5.638226988609333,-2.3952509146131007,6.706385578979548,-2.6784127050434856,-0.7841657231517595,-3.855306996668271,-2.9703876607624884,-11.359688148807264,-7.40740740740741,7.013354559122687,-1.21700648016438,-6.973064905272323,-4.063786008230438,0.719424460431647,-1.94152046783626,3.506469154322127,-6.810337570502566,-4.6853365491982695,-2.982597562710431
000021.SZ,2.838574022746813,3.150406504065027,-9.84787830264212,5.3162853297442805,0.016614055490931,-2.1725310501154578,-2.4485798237022447,-5.169895823191521,-1.0812975570684813,-3.235684393181584,-7.599598259122862,5.133928571428576,-0.7212558336868995,-0.8335114340671038,-3.4152708288013804,-4.218130971801424,15.807525471602949,-15.318225314806794,-0.3456221198156577,1.6447654686276083,1.5862301721228562,-9.152889040395438,3.090840557859025,-1.1976047904191605,12.025529056096731,-5.948921853494424,-6.422018348623843,-6.964091403699667,4.800078209013598,3.98730429388028,2.271774666778432,-0.0702630962604374,-0.1065935739302648,0.6541778174249151,6.677254979816048,-4.489524442966408,3.517706976193298,5.34912209064924,7.808090310442156,10.071855806671758,,-11.655375504883892,,-23.063318004952254,-1.9983913877374144,14.601816094353396,15.849827207037404,-3.927348044292176,-10.479733919612162,-7.390917186108641,5.872906629961001,-0.2322751907974854,1.0613207547169683,19.78609626520849,4.166666666666654,0.383631713554985,-1.4536530111383914,-1.8994726279927316,2.1719754186799176,-3.3662960495977847,-0.9559630152013774,1.1427684988882496,-5.195802405938057,-9.693501784601432,3.7573673870333977,0.7499936348880644,-0.3786086133459481,6.747113766896786,1.9328366267141723,-0.659765059271581,-6.304818904137863,3.268945022288255,-11.153119092627607,1.9055995309293516,0.0916170407695758,3.587866688848232,-6.11264138779815,-5.900924542445059,0.232423009877965,-3.318459861358261,0.0081973932289548,0.5315676583045711,0.7957559681697685,-4.603898797179585,-4.080289568937145,9.020885794697074,8.020959290608634,-8.315801129443045,8.747897140110547,-2.2363583763907413,2.835538752362942,11.020241259456142,-10.59163754669237,-6.581545951407705,-3.4162587677246807
000024.SZ,1.8175791392740588,6.338287034605884,1.09478252293125,5.824522352068262,6.552626234013171,-1.580805649173487,-4.463938817659463,-4.667819214620883,3.2283679495769118,4.629992394736237,5.992933804413052,13.520698822635788,,,,,,,,,,,,,,,,,,,,,,,,,,,,,,,,,,,,,,,,,,,,,,,,,,,,,,,,,,,,,,,,,,,,,,,,,,,,,,,,,,,
000025.SZ,2.6646466446840846,3.4455445544554477,-7.692307692307684,1.296139757678214,2.187759623373024,-5.6887298747763815,-8.614715126118146,-5.245901639344266,-2.4927929455655486,-1.800600200066678,-1.6971937489497506,3.309255837392925,3.335411471321685,2.0408163265306176,-3.1651519899717995,-2.316539769965977,1.912801053202202,-6.818733317156025,0.5492184199408415,5.405836389730505,1.5357089607872365,-3.2505046286629184,9.040526498094898,-2.6391661122199976,12.712512500735324,-7.722406390957025,,,-2.372562837679121,-1.9345544350689623,8.36412845469212,1.41750694139997,6.651673730646135,2.365160805906647,3.007457182660007,-7.932141219624026,5.497630331753576,25.153790674981973,16.37193382772392,-1.7545621125028168,20.702339496787467,-22.62462080071907,60.89462535100251,-32.2668307439881,,42.55852507988882,31.676006113092217,-8.923598104203654,-9.202533281633688,-11.28703976642664,6.576629477392824,-4.520942067749085,-2.826509893209404,,-5.666725176993738,0.4108255885652343,-3.212523676546552,-0.1357304802129287,-0.1907657456257978,-5.473700413028799,-4.787751740660332,0.3664416586306676,-4.851447912749157,-10.164041637146426,-9.573637357488678,12.089602357044582,-2.844989674197832,0.8580460635254995,-5.719714341872491,-1.3656377819002747,-3.3353590962713944,-2.122251874444021,-5.725580542974583,-0.2197802197802286,-6.371455078859598,-2.285675063490961,-4.510813594232747,-3.304828747050609,1.1748531433570917,-7.37099882052442,1.6060654036272772,-2.46569144925352,-5.554865167143038,-2.810862315388289,-8.980423686031076,7.058495303636191,-1.976141703819735,-10.793245689527252,-0.3867391019312564,-2.25981873111782,-2.741878262632408,4.1897583684327095,-7.222387343103398,-3.4926902646547293,-2.4724938126393794
000026.SZ,-10.091895024422548,3.053435114503817,-9.321095109985755,0.1637210864363321,-1.5336354130358791,2.1176470588235268,-13.63514599517814,-3.158865575282454,-4.483544747764079,-4.904343490995197,-11.951460420488218,13.356890459363951,-6.924933473606027,-3.956272774596556,-4.616875475877346,5.522388059701486,10.108073744437384,-16.360116166505332,-5.006606959330501,3.40009942471522,-2.47197082263948,-0.370683488326726,5.576208178438649,-3.060894324726591,-4.008059293372657,1.8511951202212908,-0.8383925990170613,-0.8510638297872279,3.513258850450947,6.40650406504066,5.857474482450593,-0.8407232523321521,10.74550128534704,-1.8657264580578812,12.433527475310196,-0.6733202807888765,3.274221646491273,5.775442525517899,12.41392145914758,0.4786111358839385,14.75327795015513,-23.430980341549454,-2.2039102888016417,-20.648366629388192,4.514533085961665,14.870844043655966,-7.106527267589722,0.5648330058939262,-18.23149936310967,-5.98514635211882,3.9192639727637535,-6.133118841745421,0.2541002541002289,5.217653765185075,-4.325310921516207,3.148657949070882,0.4963256511869466,3.74180461477161,-5.745155204939116,0.1864784818457588,-3.965866965097572,-1.0377293656793336,-2.826012938372489,-9.444714712627691,-4.376840039254175,1.300959994473892,-4.062447540708416,2.9430719656283597,-0.7810850749419417,-1.6081690024391126,-3.3816425120773013,5.355413072558691,-0.0783518458773125,-0.8494504967125798,4.822810982353232,-3.384817614196518,-1.1385199240986794,-8.458744161909703,0.0184426731503691,2.3035366693419324,2.1382331785784228,-3.819918144611174,-1.0652463382157051,-3.1357959075205906,-3.958802703572569,7.757545522574195,0.212742134139508,-7.211811470755252,1.4120667522464694,0.5044625533566137,-3.194070964779963,6.6370216475462485,-3.088124529249306,-1.8542798276830872,0.6559332140727338
000027.SZ,0.3059088713572586,2.3901553995424925,-5.79937304075236,1.1565401531194028,0.8585350761853191,-3.185690327442014,-2.674473809147013,,,-3.3035099793530662,-0.7715772474430216,2.855177158582736,1.861083416417415,0.1721452578080185,-2.62172284644194,-3.1263026260942066,1.56704270713093,-12.76468841869227,-1.6867469879518022,1.3147007446906382,-1.7461322717814125,3.017318336011426,0.1603992158260566,-1.345291479820628,-0.2679938744257361,3.655714946783913,1.2207074757195,-1.2127113392936133,0.8273223771780074,1.1883327331652933,3.9465900447899935,1.3803322155501678,4.041210186461568,3.536794067313178,5.748241571671115,1.2704174228675158,-1.203819012038183,3.2066052227342547,15.701055352143,-0.9342619330728804,17.636190065592956,-20.39160657096186,11.09409302088122,-7.7771354884610275,-5.05439591900474,6.468866686850364,-6.768265351860157,-2.813552605508227,-15.474557449866095,-5.578769884905808,3.396922204098994,-4.540981301841682,0.6026889197960231,1.5271516550557802,-1.15841733112682,0.7340649756523059,-2.1164021164021114,-0.3684598378776799,3.242504852972912,-1.2576356449874213,0.9677885309836766,0.2488446498400154,1.619924355955184,-3.044593938553291,-0.7451564828614018,1.132814581184952,-0.8585293019783583,0.9188361408882164,-1.32333817792396,-1.1448019801980325,-1.765650080256823,0.2066969822240398,-1.1320140076553398,-2.6197862805928973,-0.1624070433370395,-2.2368080145090268,0.8050402520126045,-5.112434712675816,3.0407111829477573,2.508911540123945,2.549575070821534,0.9610717406077164,-1.367823578673105,-1.5101772816808852,-3.114848079495495,11.37440758293841,0.2316602316602247,-4.761904761904764,-2.186421173762948,3.1640455245868644,-1.4999999999999931,1.4094190443451446,-3.5460992907801465,0.7087522663589917,-0.3970880211780341
000028.SZ,-5.422159249044864,3.133638298392804,-11.631365588044796,,2.3546860080047165,8.124660080434266,-3.001216709476801,0.3082869369162297,-0.9322306321049896,-3.121796110013213,-4.660407679945879,15.5804397295483,0.9285541086023072,-4.555189811553994,4.023871425194991,-5.270601688157334,1.0149444577639328,-7.372249971310764,5.32086423734278,-0.2964306501171073,6.59911336288791,-2.187142699074238,3.609341825902332,11.06579988965384,6.262622203020289,-8.200861264758819,-7.657114074944639,-13.174358916757477,2.3408742929103075,2.4647977634717497,6.993684632606016,-0.5495406824147049,0.1181277716454713,-3.939748493220726,-3.4272295388877505,0.4049434656849822,-1.1096441277552112,0.8453804211895367,10.519575557994886,2.231170645519155,9.324569955322705,-11.961055380289,0.5936748250976702,-10.186336266468505,-1.364498562075517,,,,,,,3.343150932671941,-0.8211200739596998,3.007144043861101,5.835420998111922,0.7696283958417311,2.029933520565967,1.6144680910468103,-2.4503892117092203,-1.733254994124558,2.6786692073504685,1.4516839967916912,4.026752895005941,0.6582773753502962,0.1194759079167753,4.227148631562072,-3.5586305223695334,-7.0378328135839725,-0.1070229176661527,-2.894342382528235,-3.70465366056972,3.135136985715136,-3.12838338366859,-0.8049720410474283,0.5061643893494135,-4.627352484607477,-2.8958604046779297,-1.1569611348789306,-3.5375305005858326,3.5506655490714967,1.2596469440255402,5.555109852956328,-1.023590915081478,-3.806870937790171,-1.151340705953646,5.155424382348722,4.698095751278484,-3.5999181836776404,-2.9707008678706748,2.7593942228372583,-1.2715745399612153,8.947633664727165,-5.522245394508159,4.341203351104346,-2.94762376347796
000029.SZ,3.6658653846153855,3.962390866353259,-6.27482128673551,4.48496796451454,0.3065603923972895,-4.798269059437446,-6.427877273358328,-3.967208315034414,-2.701089389643343,3.289179937490704,-3.561483218525582,7.087024491922888,,,,,,,,,,,,,,,,,,,,,,,,,,,,,,,,,,,,,,,,,,,,,,,,,,,,,,,,,,,,,,,,,,,,,,,,,,,,,,,,,,,
000030.SZ,12.75777259254587,6.843022334864561,-16.939360885549238,-5.435690117326537,3.5173299101412043,-6.882806271591814,-10.610375139284388,3.653585926928297,-6.47154471544715,,,3.0079283423107177,-0.5955603681645819,3.221564760026294,-4.868745793134402,-5.242905242905242,-0.3009781790819976,-20.68351726593093,-4.661532225374933,-2.049589314500658,-2.489019033674957,-8.759678153939586,1.388440426218918,-3.146156909597769,2.4432809773123942,11.539916761256167,-3.67700072098053,-4.100480236424094,0.0791765637371411,3.911584972042271,2.8529626920263254,-2.640610772571269,3.914776811973085,0.9168429826248736,2.654200916107158,6.035889070146829,-2.2837679379083005,2.38054655985456,12.162023234296289,2.24260529305338,5.320430608993039,-19.73389103616929,-6.726457399103145,-24.33061699650756,-3.2318559729949303,5.570477636342397,-4.356846473029045,7.765451664025367,-9.684224405036572,-10.743575724439587,5.704697986577177,-2.808205536745678,1.7879769111643,2.5246753599342644,2.053019732908117,10.390027629634394,2.7940291978785137,1.5483941565902466,-1.8519536187283536,-1.0995404037465828,-1.35442886251949,1.1149784673470595,-2.765748599803687,0.3423444693660845,-0.5219895602088044,4.423393643488724,5.745072860253496,-1.090512540894204,-2.7248107002708086,-2.3446391987252606,-2.249711964101635,2.12819544138016,-1.167793484941618,-2.0445730063769494,-3.2345378264988534,1.6493239895236005,-2.778735434048134,3.120005559029956,-1.4573514457601675,-6.911262866918406,1.1209158120677325,-0.0795123244102777,-3.931234989255465,-5.465664415849143,-4.07673860911271,8.463434675431374,3.3828959185710046,-4.849375459221167,-2.799684542586768,-0.6713305247215455,3.197353914002203,-0.2642007926023678,-1.10701107011071,-1.4329135909683062,1.986754966887413
000031.SZ,1.0707756594411086,12.943409657136057,-7.176816844011781,5.204001348769252,4.250027035795397,-1.9211164148803,-5.173420530188025,-4.666332162568986,-0.5917159763313616,-0.7391763463569214,-1.9685559519091167,10.017663386323498,,,,,,,,,,,,,,,,,,,,,,,,,,,,,,,,,,,,,,,,,,,,,,,,,,,,,,,,,,,,,,,,,,,,,,,,,,,,,,,,,,,
000032.SZ,1.957295373665476,2.4732135664222934,-11.56514446900968,0.875493918028984,0.3365422243093046,-4.194548718785706,-7.433628318584055,-1.6973125884016818,-1.2667390517553505,-6.162162162162155,-7.332979449457799,8.84150887132846,-2.3897277374866084,-0.6120841161141902,-5.270431559771332,-2.2527682321496845,8.51705183521485,-14.141414141414154,3.16529894490034,-4.241853213294879,7.442348008385736,-10.447761194029852,3.871576959395664,-1.923076923076918,2.520601066408129,3.080241110435213,-2.565768106528099,-9.75176350223466,,,,,,,,-4.0432677628996485,2.3934468194035525,10.72005299987578,7.7475628527449905,8.709521014622212,6.044684873426975,-22.708554605250903,4.856656630449006,-11.862846622943277,4.683775066610557,28.759725155736177,0.3932933140136662,2.21601117987623,-9.209241783273676,-7.491307554525346,3.7166812664247217,-7.430871282701036,2.1079426822641185,1.8347413140531428,-3.692952749556527,-1.1672375378271338,1.076494852275414,-0.263835054232767,-0.1270399687286234,0.2012072434607678,-4.122535440769104,,,,,,,,-8.518557167205813,-4.799155160949658,1.22659780503552,,-12.360012329189368,-2.630449445091672,4.3478260869565215,-1.6075089006365306,-11.42841805786677,-6.442194197676574,6.684587136540743,-2.7500229572145733,0.5197026511413679,-1.4125956444967602,-0.1643385373870169,-5.320655472385194,0.3327027203340167,8.370793342242731,2.941923682739709,-8.0832110138179,4.446742502585325,5.319783923170128,-2.098625038767712,4.842428900845517,-9.85848495659413,7.95864390478481,-4.499743081553263
000033.SZ,4.760605647251387,2.5456292026897294,-4.933687002652519,0.1723613505018662,0.8352621515547909,-4.055183946488296,-5.61596233606099,-0.8766803039158216,-1.3524264120922906,-0.7999999999999913,-12.121933793760414,,8.163497665945581,-2.588854760860028,-5.176470588235292,-4.079110012360927,1.6240157480315085,-11.490269261530257,1.431492842535796,4.1804035342212895,3.5886994146093247,-2.019863854480534,1.449275362318819,-2.005585173902016,5.796724720561495,12.384555469010792,-0.9255363904080656,,-1.9354838709677464,5.323150575629764,3.5484540361070813,,,,,,,,,,,,,,,,,,,,,,,,,,,,,,,,,,-31.31460152088304,-25.714285714285715,,,,,,,,,,,,,,,,,,,,,,,,,,,,,
000034.SZ,19.707690523141167,-3.007866728366486,-11.91709844559585,4.778894000563322,-3.784598004142352,-5.4441260744985644,-4.838895946414139,-5.254685523743816,-3.170424630880166,-1.9515636021631804,-11.508951406649611,2.822580645161297,-2.404526166902426,0.4620305650989242,-2.001719268083014,2.0460358056265924,0.9632971588830492,,1.3972055888223471,7.709332349686458,2.193187120858603,-5.700526374734019,2.480112306972384,-2.308852535096876,2.6601723491944584,-2.439024390243906,3.835558381012935,-6.641945686552504,2.516309412861144,2.18666666666667,14.800846288289945,7.151034114324959,1.5351660121385369,0.3073484213467524,1.4103887168902671,-1.977644024075669,2.4670803693052794,16.463587418532153,,,,,,,11.094996374184197,3.1299109481403984,-3.0494216614090406,,,,,,5.924798466655383,,3.7627655507618334,0.921183958636717,-1.888601612930846,-2.711886139248631,-6.777008936332991,-7.21842329515932,2.031264626041388,11.291926588916018,,,,,,6.815593992300608,,,,,,,,,,-4.42012082062324,-1.0055141096334903,2.0299962990917595,1.3433089610610307,1.3405025951234162,0.0571563056853524,-5.504619383847967,-14.801679507561865,11.288829026012296,4.285147467266234,-1.5907017879181633,-3.591753665247055,0.3461553420714932,4.740300375469357,3.06468248121409,-5.859978604540603,1.1458933486972729,2.7337951509153786
000035.SZ,,,,,,,,,,,,,,,,,,,,,,5.268013654396159,-2.764700847385095,-1.8822771411477743,2.7675541322116577,0.8857395925597837,,-2.317512566166995,-0.9938297772125736,4.550869668811056,0.320455759302121,0.7974195860586001,5.091516856222758,-0.056700056700059,1.8754688672167903,,,4.637151630582657,23.4963913392141,-7.588820970023761,0.4067707649914799,,,-14.808480428539156,2.988431876606678,3.777911037426377,0.6013171709458813,,,-23.81682581724404,11.26152804805822,-4.136523836023003,9.912150507441124,2.538071065989853,-6.326459279972034,3.6223929747530126,,-4.462279293739957,,-5.0812483879288015,-0.1299678500581574,4.904632152588552,1.4721345951629956,-6.06099601080942,-2.424983809455296,2.5790470639661893,-3.652251848532368,,,,,,,,,,,,-9.869133129981304,-0.1536802873199785,1.9320453031312552,1.7369727047146402,-2.7792915531335143,2.2514993609281144,-9.3667045885476,4.05288876113826,-3.9365723241449255,-2.9236446210615985,-2.580717238297388,18.2382500738989,-8.530137469157559,4.724481403637035,-4.577908441831174,1.1635423400129374,-1.3855561575973452
000036.SZ,2.9973848320257503,5.941302791696487,-7.632645866384631,15.028901734104045,-3.846153846153844,3.7349874620562313,-13.807531380753131,-0.9495982468955432,-3.225806451612899,-2.3722627737226283,-8.756202977429167,5.950212507589565,,,,,,,,,,,,,,,,,,,,,,,,,,,,,,,,,,,,,,,,,,,,,,,,,,,,,,,,,,,,,,,,,,,,,,,,,,,,,,,,,,,
000037.SZ,4.659106435305366,9.02394106813998,-4.706294522947568,4.850789261435645,-1.3986013986013963,3.663564613028623,-8.171206225680935,1.0712622263623703,-2.5710419485791656,-0.9102431155663052,-13.412184780182995,4.752425976611097,4.979206474092392,-0.8191277396502202,-5.895439377085642,-4.316546762589937,0.1575512041413428,-11.100256441567954,0.7096069868995691,0.2339613348109804,-1.3671875000000042,-1.9896831245394284,3.2112957640884683,2.2150723920306987,,,,,,,,,7.607033639143721,9.070776045030906,-1.0962631031447572,2.0641430780609333,4.014706754432779,-1.209064949267867,3.267309971220586,2.285361334156894,12.341453593718532,-19.91557364691694,-6.291977862554402,-16.483751806841905,-2.9262802476083176,22.737035900583013,24.462158612255983,-0.9195402298850752,-9.21198668146504,-6.272908157922284,1.186008106890858,10.742511464533113,,,,,,,,6.412264464378955,2.5031975150740053,9.275170742454282,-2.466412672949656,-10.939879939073569,1.267153898732839,2.2285629950312336,-2.6690748545053418,-1.095991952136378,-1.9015659955257245,-5.432711737197622,-3.0717528447615163,-3.546099290780137,-5.642380218651423,-2.4390243902438864,0.372008142064992,1.938667606626716,-6.523855890944502,-4.241848686293136,3.709949409780792,-2.886457265320567,-1.4930808448652657,-4.909560723514205,-1.8453865336658453,-4.225352112676051,-3.776003154885157,52.7934170636639,20.435393258426977,-19.5331220530262,1.6004862236628905,11.944409135206133,6.334204705409232,5.703538804022423,-3.4269009967245383,-3.6754456752989375,-8.050560229674232
000038.SZ,,,,,,,,,,,,,,,,,,,,,,,,,,,,,,,,,,,,,,,,,,,,,,,,,,,,,,,-13.658199286702082,-1.0016234263485306,1.946005652837785,4.60441879952059,-6.326140686076886,-6.00951058026706,-7.0825362758363335,-2.9171257901757155,-5.327768229806029,-6.425686645466866,,,,,,,-14.834367929454087,-5.042746765418557,-3.0623705293633154,,,,,,,,0.1649776101814646,-1.4090259342454785,3.5871858814502264,-4.896772750987549,-0.5210800568451044,5.464418186685012,-6.257808874451162,-3.016633775021144,-31.61397670549084,-3.4511092851273557,-9.132947976878611,61.85957242629416,-16.007219214216303,-11.6833807931988,4.2658129272302565
000039.SZ,5.958265725821665,5.321126178839408,-10.96428104147586,8.021464910446719,-0.4899364406779629,-3.567979920624036,,,3.425725640122746,-1.7940525927746365,-3.200785976524117,8.329027105745292,5.785123966942138,-2.52185851578871,-3.527773479808135,-5.4338408218839085,6.697786854499233,-7.495298647801564,3.878648233486951,11.372530339550146,-1.77139660637703,-3.2430370087752776,8.366593870020333,2.394487510766582,-1.823281907433374,-5.234017897379755,1.6644174538911294,-9.753064487475578,0.8551106848877291,7.400758029124277,5.044703794040647,-3.108544250042463,-0.787654717891025,7.831864060304072,1.9169149474394267,1.930106400316636,-5.836922619931672,3.410908715620004,8.261700095510987,-0.9828483330121462,1.743454788211846,7.29649376318366,3.018144798102843,-14.420721036051804,-7.638515330823018,-0.1408338426381125,-6.728847435043307,0.4232121081701656,-17.07500942329439,-3.764038896264675,-0.1331125612804738,-3.559506890967388,2.6744102674410213,0.4465868008789979,-2.8062733691709845,-1.0060644301889512,0.4677068085258266,-1.3621086148947286,0.8281368570391592,-1.875901875901868,2.474413784168933,1.713320463320477,-0.687783363661588,-2.812838081500183,1.5761821366024422,4.621812168160838,7.914195475889131,1.156918801934428,-1.7989990531583937,3.318655353882522,-2.8099832946867385,9.178651631707217,-3.0667631626560468,-4.610818279514864,-6.538923493757152,-4.693456658958814,-0.2783946948606461,-7.675194660734163,0.0604076661065502,-2.014487522016985,4.955234465029716,1.428100108403612,-2.016523052323008,-3.4098689916464964,-1.503094606542878,8.247422680412393,8.73446780599789,-6.678986272439277,-2.1413950558967176,4.807248320031101,-1.141410764601942,1.2645319192331197,1.6373801916932895,-2.1684316691880934,0.6263048016701486
000042.SZ,2.8357294706878577,2.5857588357588317,-4.16958654519972,9.533690073168062,,-3.7640308346467295,-6.788025002741539,-4.321252106360495,-1.157353285012859,2.5827573663150125,-3.069466882067833,,,,,,,,,,,,,,,,,,,,,,,,,,,,,,,,,,,,,,,,,,,,,,,,,,,,,,,,,,,,,,,,,,,,,,,,,,,,,,,,,,,,
000045.SZ,1.7318261951674825,-4.8513921171059815,-12.827972630784986,-4.254689626605127,-0.8581888015363344,-2.264453631147036,-20.7729468599034,12.685125563425627,-6.835134723702229,5.389605189396963,-10.504942150026835,4.424778761061942,2.1532298447671394,-1.0995337056012828,-7.0498710772907245,2.347905046050073,9.22851010956736,-20.419347152728143,1.852494276000834,2.920181700194676,0.2272153496591706,-4.972515321918239,1.2539395158586488,-0.7751937984496117,,,,,,-8.50571839260045,7.651912978244559,9.555365540829404,4.254392333381735,-1.0149830836152838,16.83099638309468,-11.584079508696272,2.3726482291103874,1.929591987037851,5.375388716126183,16.690899601088613,-2.639821029082772,-9.624323706469562,-4.018248815581673,-20.59398202422821,-2.8037383177570194,15.060761913431357,-4.027167694068134,-2.1090606354932757,-9.717272511285344,-10.908261068005478,6.859327088671401,2.4403325288280944,6.35974124170377,5.11649508475887,-5.148229585260447,,,,,,-3.8564184681078126,-1.9046350559403225,-7.490909090909084,-11.14408176722718,-2.5114653854553373,-0.0624609618988131,-1.3683782685273074,9.750687605358884,-2.194775932571136,-3.41733737960154,-4.91428571428571,-4.308568063597993,-6.004952538175827,-2.7640671273445303,2.1229050279329726,-4.482964734010755,-8.577739599950917,-0.6581226186352441,2.3593983890512598,-4.594656295478583,-0.1092555017949003,-1.1299435028248537,-3.839732888146928,-8.284492317440208,-11.635973243042372,10.99609841547894,1.2559380490661765,-5.930470347648268,-1.8771331058020528,1.841820151679305,-0.7433318758198542,7.147993671796347,-8.374818829163777,-5.452035886818507,-3.473591190265794
000048.SZ,3.1710867776441543,2.3138105567606684,-12.201910304257076,-1.50590150590151,5.888363775705703,-2.096959072213608,-4.324477105709442,-3.9288577884685294,-4.412887463734931,-0.4735883424408068,0.6048541459306476,4.384133611691021,0.3508771929824602,0.2471848393298506,4.447918146937608,-5.382887778019277,13.360323886639694,-12.818973281296907,-4.046952842421357,1.6300402560548966,-1.1836758730345618,2.0287359414518518,-2.414179484567583,2.827525568050344,1.5228426395939263,-8.844320236725313,-10.480735242135031,-7.02947845804988,-2.0891146133305445,1.4852851857986815,5.815061963775039,-1.3775982086355465,5.868377286766451,-3.2942174466280187,7.407946441566019,4.549950544015831,4.150653343581866,6.020608021800212,2.709473267848895,12.253368239576025,8.013343397696541,3.731037310373107,15.374866933644247,-8.27558092132084,,,,0.8282319049333935,4.935916458236167,-9.874993176483445,2.732307129017972,13.411779014260093,-1.5281534469265308,0.9322033898304918,-4.890882672422311,0.0745754933455694,-0.9800362976406576,0.0260032937505448,6.301861403902216,,,,0.36210018105008,-10.160896512865468,0.3592276605298432,-0.9426006783726606,2.75036904669412,0.6657174741216727,-3.5022989158199485,-3.1793373506198424,-1.018063781801325,-6.501980890235373,0.3657148393034483,11.779655494493564,-2.046004346221665,-7.106954253356236,,,13.120326308633588,,-0.1310497537168262,1.032047800108644,-9.540199452828508,-5.7653972609832485,6.985418786029155,2.176318701586128,1.3023881266030906,-1.636400368133964,-1.1912034208918816,1.2774655084312625,-2.550635708899951,14.295195430088413,7.72375031933917,0.3351400554429226,-5.879112085990564
000049.SZ,2.834186610489192,,,-3.155922477896828,11.877835282090604,3.2994366815421787,-12.410119263457918,8.810728149629453,-8.206671843339782,1.282088724044276,-8.433579722047769,3.238661308297587,3.1829883483876795,5.574561157534631,12.019722867299896,4.454624437248244,-6.458019961605897,4.039670516108825,-7.417396655599703,3.353754437470968,-5.341821201217823,1.0707848888574878,6.905595128771527,5.840048849253318,-8.074763961323104,-10.813319147972935,-5.494940765546788,2.979321215462778,-1.0779209998932784,-2.9897604327666216,2.114449875420376,-1.4104684630712572,0.954100051572981,-2.6389073067232505,0.2098056537102477,-11.511964393260582,9.91462652824464,4.22925497619928,0.8935081626852142,-0.0816217755313466,24.24462651945802,-13.61668990745939,-1.480547283190431,-16.743379503757144,2.024139640182718,7.022475186321287,7.9122827301807455,-5.535129019914476,-13.939051918735894,-12.227108735153932,3.580372250423003,-7.022798117474494,4.920505981029077,2.1867576292867104,-7.260433201264852,1.845460583722966,1.515392424260961,1.578046184460182,-3.437646585807147,2.161052465349045,5.549241488362886,2.9468830605583216,2.4925224327019047,6.957059299063188,-8.78273702464331,-0.6462500239706855,2.2189445777284,1.697115830473886,-5.816970611508795,2.27184011242096,-16.636355593130364,-3.115287668551003,-9.762228972452077,3.170542748973111,-2.305096379339938,-3.4746062779992783,-5.832928913505329,-4.452344675808371,0.5866968261822314,-2.1853777687311355,-1.7914831130690154,13.34125346505765,-0.0742440604751648,-1.485616144267936,-5.245992644507677,9.313440547697487,1.1123808421692238,-11.562837699699177,-3.115615615615626,3.871411947270919,25.067971723762927,-0.0108595319541887,-0.1604782496845529,-6.953662924136219,-0.2158726753462637
000050.SZ,-2.501276161306772,9.544326935631291,-14.571914571914563,-3.458504685498545,1.5741861955979726,-2.2308728851624458,-8.467575382073512,12.739255416111607,-8.260211800302576,1.1187341615674655,-13.019879231969608,9.193815571507436,5.859894718574658,10.37618850764779,3.7497226536498713,-3.2499376610423103,12.311015118790491,-23.014288518436164,-12.643144537294964,3.122269007706359,,,-3.372835004557885,2.73442831793987,9.921828021647626,-6.423706975888081,-1.9225410977988335,-3.678479212663248,-2.689161153951549,1.3458731960434638,20.72852184492076,13.222624161072952,-5.496733498535711,-0.6873276536197939,1.6521238428489302,-8.833535555396953,,7.331142580202849,7.36791080950073,-0.4662177162732104,1.3744454948731148,-23.75538049216276,8.206928736194882,-19.38263280137859,-2.2278534473656437,14.785087855217084,14.039019556960527,-3.2412581829794047,-4.207529262891484,-10.463428941924724,16.16703998036268,2.2192333557498336,9.61388960870692,-0.243774198174092,-7.668755681002722,0.321202926201071,,,,,,,,2.553419439319094,-6.222537207654166,12.629014153913545,11.639116918553732,6.188308468923237,-0.1950873459253441,4.177432357014421,,-4.171528588098009,-11.980314758804518,1.490587327038409,-3.0535724998500227,-4.58003982444283,-1.3637325753681513,-7.255829121147882,-0.7260541748115111,-5.422160737107428,4.516129032258054,-3.093448895855431,-3.0147765222562923,-4.757281553398051,-5.926718646486258,17.22184961621582,-7.466076872496849,-11.49996852772708,0.0609366846947124,-0.0074399226248085,1.5635810156358143,-2.135810053846986,-7.06744670835855,-1.3318058141199969,5.994606928023223
000055.SZ,2.9468536867841943,6.4388961892247085,1.9864837190251885,-0.7990645098421473,-1.5581467340831814,-7.724090439573061,-6.584992343032161,-3.872839661914969,-1.5047879616962971,-4.639476452027576,-2.910185649774196,3.492884864165574,0.4979628791308392,3.24877614597241,-0.3962728927920965,-0.5821764442453949,8.937706891363225,0.0049995401358641,-1.674966047985522,-3.521304311286658,-1.8615424208629912,-6.558228067139641,2.983988355167392,-1.5878555225964015,4.240912330719885,-0.9355162044771403,-2.4891347293559782,5.353475837960302,1.845772233165532,4.188815649585377,6.500000000000006,-3.4084475144377886,-2.0520779444731865,6.544901065449009,6.273062730627323,-5.268561295440755,-1.656422544015017,1.5421372719374418,8.494989881040526,3.73262159901208,0.562679926720765,-23.15005994042945,-10.143631032254868,-24.959216965742257,2.6880096647538467,30.871869859257917,-8.949514481483028,14.69591226321036,-6.8736141906873645,-7.379659112193284,20.63791477321445,10.79517599764683,1.7474323203941793,5.688774077609932,-9.251323418200156,-1.6025641025640904,5.21271862271965,-1.1446409989594326,1.3710012463647774,2.1279784205005208,2.480372403251592,-1.8476946986703613,-2.6739408634741078,-7.774039312909519,-9.423225750014332,-0.3695086902969861,10.56376573617952,-0.917666688057516,-0.9252120277563476,-1.5340238625934417,-2.2567409144197006,-1.6553067185978716,24.06804198335144,8.61970399542653,-6.599373921931892,-9.321358731078448,-1.185456281327077,-5.115620071899841,1.7285912974369162,-2.1006058471429414,-0.08396305625525,-6.749344145003582,2.225312934631443,-4.942965779467676,-2.466472850042192,5.949056444105956,4.476959848936278,-19.48228882833787,-1.3223894208846252,-0.6307617661329493,-0.6410256410256454,2.4953598680140137,-6.228131560531829,-3.4392969512856606,1.4194139194139137
000056.SZ,-0.3709591944886098,12.29365053214274,-12.544553594714428,-12.393932444386206,0.1329835028573474,13.764180351576307,-10.443346839785889,-10.327662040983329,-1.8936801277663569,4.287028518859241,-8.481262327416179,12.363116965561003,,,,,,,,,,,,,,,,,,,,,,,,,,,,,,,,,,,,,,,,,,,,,,,,,,,,,,,,,,,,,,,,,,,,,,,,,,,,,,,-3.08907642345856,33.00434731523909,-13.99662731871838,-9.91187030790992,-4.297107487203918
000058.SZ,,,,,,,,-14.184866534303993,-3.201411646080159,-2.2613065326633257,-4.822335025380719,4.252049180327864,-2.175089276052365,-1.679186920017676,-2.6095060577819185,-6.70553935860057,3.71910371910372,-13.138953275588635,-1.354884715949605,-3.4362766420182576,7.817280303829519,-8.195536279027754,5.078124999999996,-3.4756703078450912,4.038193753729868,-8.052434456928836,-2.6006627171402936,-4.921465968586381,2.129557364254661,1.2571428571428458,1.3871889024887731,,5.045634578956418,2.4999999999999942,4.134004455813209,1.11612092541946,4.683195592286495,4.517611026033695,7.232887337599367,13.276353276353266,-0.7190447918728144,-8.355147818151261,1.7840805123513317,-21.0476371227937,-3.1476997578692614,25.25389302640485,,,,,18.41988459831336,-8.652175591675977,-0.2043434871453747,2.285574617653861,-0.9486482875339538,1.6107927627126164,4.485893550727735,-2.94780927835051,-3.799942980491184,-1.3857845328565062,-3.437442247274072,0.4410300184947993,-4.502697798787194,-9.556578879288049,-3.416682573010102,0.8728179551122169,-1.8214700943030675,0.8367029255013307,6.937139994991217,3.1941031941031715,1.3126893301918428,-7.931570762052865,-5.824205183008285,-1.8698810075722316,0.3486433227224361,2.7620128641695003,-7.332433648223127,-7.785727507451245,5.263157894736831,-2.6353323241485853,-0.4571903574397235,-0.1541562907624866,-4.877205119335863,4.18490632113467,-10.981505640395971,17.743376004763313,-5.470344282799037,-13.641686182669778,-4.725079266878031,-3.37330687602451,-3.292161744899852,58.08269184985321,-15.914392940460496,-12.799560948838344,-2.676399026763991
000059.SZ,8.050582196068623,3.958194351790077,-13.69758576874205,3.5418708968958077,-4.320314204669434,,-4.42600276625172,-12.835040313793856,-1.5120218127736826,5.5327073795297625,-7.731092436974798,6.157443491816048,4.076568592697642,-1.8298383865366716,-7.310423990243198,-9.71524288107203,2.9567053854276613,-13.902879407013195,-1.696770662287893,-2.5482460816718144,-3.1820552947313305,6.356198867212099,4.077963856561629,-3.6307454615681625,-4.074032276266798,4.357418643132935,-4.097646033129905,-9.018537472989872,2.4258760107816597,0.3767164904605696,35.55970559156324,-3.6771426562609992,9.963755727278944,9.644670050761412,5.666235446313074,-13.131669459387943,4.512148091014269,-6.666666666666657,4.750941816659685,2.5543813089427085,11.31894703225513,-16.208623427384907,-5.190270462212226,-13.487862748676768,2.6231017027151435,3.949253120523849,-5.490097768864371,0.4829705827008768,-11.364199059173052,2.0620343094784035,12.177867609904002,-1.3505578391074389,3.965384387410367,1.9960517657381025,-3.952715182859264,-2.8406302818821225,3.2951624211264385,-0.2654317501552944,3.770509616429444,9.652153881594122,3.625693383712528,1.169569468081258,-2.6710574460300074,-5.399414841741287,-2.4438216059399043,0.3391534258943163,11.019701234033343,0.7955278434745189,-4.902386117136655,-0.5773834671173128,-0.8393519422213581,-0.1466890192791371,0.0141129980712221,-4.158771317442912,-3.957503320053106,-9.264565425023886,-3.948772678762019,-5.383136500961259,5.31682447195922,-3.696323575189715,4.178757980266964,-4.880130343703931,-2.8314535846675777,-2.996652241365243,-2.9290115641090475,8.780487804878044,-0.2840909090909125,-4.292188749666759,-1.4522821576763358,1.637420011119525,-1.626585726515674,-2.309666381522677,-2.554961378490776,-1.5294724179412036,-0.3970308993612951
000060.SZ,9.87618773394761,6.632119188798636,-11.06557377049181,2.3391812865496955,-0.8543402594663032,-4.365673711654737,-1.5375285341033793,-9.353557240881177,2.612173478315208,-5.264480462369638,-2.3075405956215973,10.940851976708563,11.948449104412411,-0.5695530456607659,-4.857444561774026,-2.570434392187677,0.9943892005999588,-16.4721468677055,-2.177845307864849,-0.185032433581521,-4.807364473235577,-3.8461538461538542,2.441654471231629,-2.0891799189273565,-3.8394415357766154,4.267063874529039,1.7398216020489186,-4.046651351828954,0.2050459124543188,14.3459200486714,8.397932816537471,-3.71685906380821,0.1962066710268259,0.8760286700291989,4.432996247535457,-3.0148185998978114,1.2396694214875992,3.9075940034406544,6.227869193917931,8.461675685318419,10.550348473924531,-22.91958771473948,3.0075763373383424,-19.800035707909288,-9.002810349840097,0.9691629955947034,-3.9818153315566582,-3.620251425431056,-16.13381521638402,11.304684475416185,-2.1119971956883643,-6.118803037070117,1.881121417836975,2.2095192019430283,-10.343950125111318,-0.5494505494505453,-4.048964218455748,4.418056824191143,2.1483583299554194,-7.759761747187285,6.284044107878319,-3.416474533640748,-1.9279866185403656,-4.9819761530640445,0.3132932687483554,6.04052262829007,6.05152786099459,4.0550267935695485,-3.5886023129197637,-5.107308955924387,1.6789655899816744,5.886813916010998,4.484109708315193,-6.755209525990384,-3.788890029777191,-0.2849002849002817,-4.035633942307198,-9.235222709870197,4.568088330807538,-1.0838964354889635,1.9363454262185773,-0.0350344505430311,-3.337969401947129,-3.355704697986594,-1.5752839174502429,11.673958093483764,-0.4631910909628441,-8.674157303370782,4.080004075993806,-1.3773525391651724,-1.5057171968753629,-1.513331731924105,-4.423941329548149,-1.5670910871694508,0.4543160020191776
000061.SZ,-1.642352509404521,2.680125304559696,-9.341241262444404,3.380759691946228,,,-3.396928804094933,-2.373488580385124,-0.5291005291005393,-8.642196894911603,-8.87634684453567,5.214582371942772,4.098566758863472,-2.2828050583018538,0.3201707577374563,-1.6866600523135162,11.893463952242444,-11.558783695609783,-3.099284780435276,-6.116848414819084,3.030727234548883,1.9330121321181848,4.128384172485593,2.482960077896794,1.4168530947054494,-7.352675070872798,10.980803654095428,,-2.0362678553338065,-1.6515721599388813,2.70241113328658,-2.296929468506759,15.866957470010888,-1.9298458550795028,0.0914673984058805,8.95783082425352,1.5228426395938928,7.700892857142862,3.4754322889916183,12.2032534345002,1.3450109477635297,-18.22534437460129,1.9569149810886317,-7.564913181628509,-0.5344624141042499,-3.365871176259348,-4.728117138618338,-3.235511309247043,0.7295668417157055,-13.398865518091805,3.947787328876145,-4.125644631973737,-1.6227968009938687,-0.4242035755830398,-3.3576408366054817,-0.4077108815263553,-2.1945600775976963,0.300739656994229,5.6701030927835,-1.6458614932018776,-2.4108322324966998,-0.0127426411247526,-3.83019609555837,-12.872951393752626,0.3085553997194972,,,,,-6.608626830233479,-2.7074898785424963,1.3763896241397586,-3.3186265106464727,-4.658091708451424,3.2469381942466407,-6.047048636166834,-2.265861027190317,-9.31523174433892,2.0504582821506165,-2.9956340327989865,-0.8280565026790061,,4.056062858356337,-3.722084367245664,-3.311529026982828,11.216911064559138,-0.3327787021630784,-7.984852147288689,-1.38729345232835,-1.157992449264274,1.1235955056179754,5.582168344901752,-3.963133640553009,-0.7485444968117624,2.128471890808442
000062.SZ,-5.529110216038075,6.202209005947313,-11.43185173035918,3.9173905917062632,9.129705837524757,-2.592852137351078,-13.57822236798951,5.801445953094699,-2.2362623659489507,3.889828460980907,-8.694192682108095,2.795772246846246,5.205820558711388,0.3455009764157922,4.250076994148434,-8.727745465596865,2.882624621755065,-13.426984645540664,1.337510543438976,-2.596075224856904,11.890228522423437,-11.40134133427462,5.582715659990531,1.0790293001236868,11.496571198063734,-13.116921269095169,-6.270773321515637,,,2.373014316532658,2.0529801324503323,-0.5261225988009299,-0.274879555463599,-0.0305343511450305,8.785809991705483,-12.347605015311716,4.077190092369253,10.641113500484444,,,,-20.777372896061085,-1.743389385169004,-16.942068429237946,-2.9258184832159198,21.10318184257123,-9.820187062500748,-4.69866812482913,-10.676129426129432,-13.26855522915424,7.925152406777048,-7.1424488940539845,7.013776424465046,3.331483572207635,-5.239852398523991,-1.0618706163551648,-0.4950596742055603,2.449624654286831,,-2.6688135941621924,-0.3714777566367859,-1.095360824742265,-3.5387703516467077,-6.986813619366265,15.106637640510302,-6.14165428429916,-1.2053796364482074,5.68858866836174,-1.297472385493058,-5.123192753595143,3.522645578720341,-1.5156279479278016,-4.566004585288495,-3.7094732742673537,-2.6349056837617497,8.881808224634083,1.328894300453882,-7.411781378430728,4.310989284824307,-1.9450920570118089,2.73570206135532,-4.0887342322748985,-3.0142079405125397,-8.158765159867698,-1.2431741605669808,8.839138985425242,4.461831253964893,-6.046145089969783,,-4.857357626087268,0.8122675168906099,0.6205673758865248,-4.595388117309393,-5.5826152116897765,-1.4042648042202277
000063.SZ,-10.730442125580556,5.622959906386646,-3.8956481048198377,0.9573542210617916,-5.854064551928248,-4.520894603652273,-6.0293194532471714,-9.555069292487234,8.087167070217921,-14.643575073449815,-5.447447081071185,12.886418895449811,5.887500607710645,-5.259087393658159,-2.4687595245352045,1.1641910879164867,-1.834291932224467,3.77665635682891,9.195402298850572,1.106624333405274,0.2294408887815682,-8.831566619621034,3.920943576665607,-9.590841489987206,1.0470207500475852,-3.542873908897531,-0.5350960025180812,-1.077044320186139,3.0160595377986628,1.17601696549063,4.063766208203806,-0.6688487263412548,4.1316069650032565,1.8493701420530604,3.9029885362136376,1.332585215317725,-1.6687600933070177,5.668910931798321,4.640865465163589,18.772996778067984,-1.3213606659529835,-18.555131779233434,7.453711721740269,-12.052715864639934,-4.050189131838732,3.9694789876809553,-6.591498116333122,1.0797026748413014,-7.813956478415988,-6.130991182625999,,-1.685781401133052,1.4652823797952903,4.041210186461588,-0.0677070488126147,-0.6429780033840933,0.2271725494185049,1.7354877318970918,2.103922876371798,0.7039808062632128,-0.7988475641697262,2.8880278709341165,2.97198020703682,2.8968713789107823,6.794258373205755,8.231325081492619,-0.6708504652672692,4.807713426017433,10.750205455328144,9.63601792747522,-8.13025064222731,0.2287951043360686,-12.697076810862374,4.722926005327083,-4.955551352373756,,,-43.720980455674336,-1.904793899284445,17.176150156662832,-0.0628020642765525,0.6509913498409701,-1.4115954253392526,-2.013254970613977,-0.2653309197311983,25.128592723226472,-0.1128861218486025,-1.253148227778122,-1.298968718362323,4.6788518470845535,1.2533640907343535,-1.9133868990875809,-4.580209559864668,2.348813335989077,-3.832905367320107
000065.SZ,-0.6955333092108076,2.337472607742893,-11.9529050422319,0.0275883813502479,-2.5688412493069777,-3.8706851701257663,-4.636959963809092,-1.6349019962062872,-4.882966599456477,-3.183084440790981,-9.54522738630684,6.275919270113333,5.73337158313184,14.06081185368114,-3.6007724054371244,-12.257040856802853,5.415460934270356,-16.854345909960124,4.548626530482767,4.999182249359431,-5.452195189511099,-7.63091298423205,14.285714285714276,9.540924685508909,14.976199194434283,2.90404040404042,-8.730032709835193,-2.4902591902422477,0.3539016784049892,3.66561983362922,7.892403192432753,,-4.213345621058068,4.113221687372096,-1.06544901065449,-5.84263827577252,1.4852851857986904,3.767349636483808,5.118178017167181,13.09714938099824,27.739468375710345,-23.737090372586906,4.0286509168600775,-14.671361502347429,-3.7280614872627824,,,,,,,-2.7279643517008862,6.500611069079889,4.64599712690212,-8.041054193370746,1.8693139813822952,0.7442290711852877,1.66893493199097,-5.033203233384521,4.4255630695721,-0.2143458623593372,3.838557320738519,7.635182874580961,-9.91441428193287,-11.793493906534875,-4.056411181754815,5.928205128205119,-2.1014009339559783,-1.2633197846863622,4.873015204481336,-5.540504902783428,-5.292189207472559,-4.769837303570443,-2.8150769327983114,7.82703886152162,-8.736471101961888,-3.091457014187509,-2.7857097531569064,10.096242260773616,-4.559397683375688,4.944140717851181,1.474157835533722,-2.6234391110092763,-9.885596949251989,-5.462453626711005,13.165816796707016,6.632361349342487,-19.743178170144468,-4.222340994120786,-0.6029377091994249,-1.9527834450597437,2.781932396051442,-7.610465747475845,-3.0196423336265084,-1.4668564708794911
000066.SZ,0.2143075824063589,0.2265005662514277,-11.064156742220527,-1.6833625942373416,-1.1269402509036863,-9.373202990224264,-7.613112977512848,-4.668989547038318,1.0928961748633998,-5.038759689922468,-8.47872666054484,3.4696406443618386,-2.000579878225581,-2.5964500513422304,-3.32326283987915,-3.5410991828232787,6.44922164566346,-9.97167983306007,0.8507347254447063,10.167310167310164,0.7480130902290621,-12.207853837940442,2.473975936190348,2.060051164669473,8.90585241730281,-0.7814349988160019,-4.51324132786273,-6.392083444771332,10.938310005184055,0.9207222288652408,4.616734291040688,,,3.0092592592592493,-2.4318349299926423,-6.32663070132417,4.65196654454966,13.353536656135123,16.03754743359298,-2.344482650828382,27.2494321821676,,,,,,,,,,-11.97952431487609,-7.989759657636326,1.9385956775809208,18.296529968454237,,-0.3308519437551731,-4.559192882380491,-2.484210526315791,,-1.3833287090253257,-19.97548483123932,11.30876747141043,-7.181914258144553,-2.2366157271531306,-8.642786723628001,5.707749164075782,-0.6781652159982839,-3.5163196237021745,-1.0913268236645532,-6.844444444444452,-8.17088908510494,6.167625427801634,1.2000842164362482,-1.049928242314387,11.88429526538408,2.7276351005067974,-6.381465900337724,-0.8437347465309237,3.083795984790456,-9.435405346459468,0.4587155963302762,-5.967116201736548,-2.2230421547827723,-8.23734391636821,3.494883182081487,13.51706036745408,19.96368176143457,-10.755265439339077,2.9040404040404133,8.49604221635884,0.0480982800958899,12.863949179460027,-1.031876941961703,3.1927023945268127,-2.635719905586165
000068.SZ,,,,,,,,,-2.3039153972050843,1.440503570996263,-6.772009029345366,6.09714088873579,7.262784227189871,6.968372332219087,-0.7155635062611763,-2.9850746268656847,1.4348193048415523,-14.553383944435472,-2.507180004657294,0.155763239875354,-1.2248743718592827,-6.090953866360199,-2.608092886231696,1.3333333333333353,12.777878185432872,-1.541521631029348,-5.552098458134557,0.9201543484713488,-3.3175355450236905,-0.1221747098350673,5.873821609862215,4.549235395738709,4.1127408685648605,-0.4872456291200816,4.634600635477172,-5.742787813426808,,,,,,,,-15.622623383901066,2.5641025641025665,7.556284750706405,-8.396946564885504,3.016505406943658,-7.773945343592472,-7.39158299508651,5.893798965640823,-8.60744534173724,2.6513979160218715,-0.9617352158788656,-5.726607160766224,5.163429654192343,-4.329815563665059,-3.302129410554471,-1.9628874825699865,-2.3474178403755843,-2.140672782874623,1.264238327700591,-5.835461169583368,0.2354107297732696,-5.59925960203609,1.1673151750972777,-3.363914373088684,-0.7081948258418738,2.493675460787857,-5.439454572402549,-5.532838187432195,-2.949937542039016,-6.707715271947002,-0.76169749727964,-2.3057589334499067,-4.631530914898488,-2.191464821222604,-16.022099447513806,6.404269513008658,-7.818888942401925,-1.2474012474012532,3.1256221381644305,4.035639412997923,3.067782223838976,-17.26204194514867,35.541245016865986,-9.691128481444924,-13.876409256590648,-4.156682987811247,-3.4482758620689533,-11.994149195514405,35.56701030927837,-12.02600216684725,-5.375848969724875,-3.814679592093676
000069.SZ,6.313239276043893,1.5491708182624992,-3.5763411279229764,3.4764826175869072,6.63137100381382,-0.1564945226917128,-5.812538040170408,-2.972567698685702,0.0983108410045406,2.4347826086956337,-1.9456586954658404,16.135026323939318,-6.0723060723060645,-1.080074487895735,-1.7502325188128884,-1.832126118449076,2.7320658252117007,-11.31314864053518,8.005043600738588,-4.785478547854774,-3.171953255425707,-2.285525008280894,-3.007652607225486,-0.4507888805409466,0.9892827699917724,-6.22406639004151,2.319387415381204,2.4338624338624264,3.264971144822538,-1.604951222070707,12.234580384226506,-2.086383601756955,0.4238068914685926,1.6323895600848513,9.258784303667618,17.789834380354066,,,,2.3287941582790768,15.796222320856138,3.282275711159737,5.0161737332865135,-13.628899835796384,-5.433264613952261,3.3719238312140267,-4.761904761904768,-0.508762012436394,-8.903866619368575,-1.701610452749932,1.125216387766889,-2.9055336545481047,1.7913431229338066,-0.3384822358126128,-0.907494145199053,0.4125585623383065,0.5602643298376533,-0.1803101334294931,4.451454609183302,-2.9058396200055854,0.2741307170682325,4.391398148792529,-1.8949065985754647,2.897544346947802,6.954465530831259,6.722841202328465,-2.376910016977929,-0.5884705479060727,-8.243486073674763,3.840682788051208,2.4193548387096757,1.908534389629104,,,,,,,,,,,,,,,,,,,,,,,
000070.SZ,1.7911751856706055,2.048857368006305,-10.459382299506863,5.967213114754085,3.378422531529763,-4.622463919682074,-3.973999113606156,1.6875811337083564,-3.353468027494276,-1.8631773574171329,-9.809754951851568,5.657968238767871,1.1607456911713177,7.802591673559403,1.6359654772639305,2.406232330212978,1.2178619756427562,-4.835915781555236,2.617438030854572,8.798353524486647,-0.9711274659234488,-11.71910624715002,3.381690350051975,-2.583732057416273,2.8055159296243457,-7.075068591733007,-2.5655536691190184,-9.48088880320045,-0.1395898206807625,0.3756486835146196,2.2859749607177147,-0.7807574802385745,,,,,,,,30.40107949814821,15.808790130634645,-28.680903238990503,,-7.060200400740244,15.196858749867356,8.139106213902421,-1.769305610608625,11.739819280254917,-10.901863243687403,-2.2672243011226096,-2.044129269282529,5.0047448116516,2.38979902043572,3.532013188288498,-7.726773866413881,0.1863127364923296,5.317751192863562,-3.123629452755716,-4.077150113254172,-2.3137239754335828,-1.445981425604462,0.6964939204344135,-4.671379631279828,-1.3725651352017747,-4.938017943976439,-0.1464843749999907,2.3636702028661776,-2.254624004320245,14.914535696567905,-6.947421510528311,-5.606912249732882,-3.372646389406163,-6.294706723891266,0.3325629896849115,2.7638055059765354,-2.461826114054233,-6.403869286066325,-6.6563666795416605,-1.7091260883586017,-1.276993317036637,-1.816935207404876,-0.1172332942555585,1.6853136949440557,-1.1623860235261216,-17.475279549025043,47.3647408443318,-6.27517968221226,-7.791550720971432,-2.289274529806041,-2.456532142287445,-2.791101365858129,8.513734764416958,-8.164041695198964,-8.142504653478204,-2.9756028768862084
000078.SZ,0.0468969829607628,2.5349712419228863,-11.222430946914358,0.190699721285027,2.3268853378189127,-4.410741616808123,-8.951091971701016,-3.749300503637377,1.4528041555068487,-2.067639044718705,-8.30654711554728,4.058644734489536,4.108157533799222,-0.4610623381544838,-4.636805464337314,-8.51851851851851,1.5209125475285177,-13.413867746665725,1.8280707055446488,-2.456752434946932,8.746376299229297,-3.8086572208501206,3.474165585966821,-1.8715882505848829,6.1636914786123285,-0.8147815487265104,-3.29749534506577,-5.183706568523466,-0.6036217303822938,-1.0350584307178672,7.275825077301706,-2.53134610835107,7.251675807434499,0.5419005225469382,2.131928768497612,-4.267306844348625,-0.0884173297966401,1.8131101813110244,14.96166484118292,4.383421456592203,16.197046626099766,-26.416482707873445,-0.1196172248803968,-16.4776910616993,0.8637719332223001,11.931157941019446,-4.896900323607288,15.723634958583888,-11.68919109556188,-11.246237946072116,3.5124814592735087,5.544911529358729,-2.17149884634237,0.7321041214750489,-8.25439783491204,1.5351660121385349,-3.0371362130928072,-1.8166089965397865,-0.5047918648035711,-2.702702702702698,-2.159896840747909,4.21094057457694,-3.789178231716831,-2.8533729176975107,2.6615969581748966,-0.1820890581029717,0.9509875640087676,-0.7913845149710436,3.744087228413369,-4.471699550544675,-1.19335725611283,-1.5764450746517644,-3.4114605054633462,0.8251064272863331,1.8054162487462315,-2.5514122365389538,-3.5936420179682105,-5.398760940112102,-0.6366530241018596,-3.482587064676625,1.5281015281015269,-11.512281740159803,0.2543767768965969,-5.4718477398889664,-4.549793191218571,20.571598690086308,-2.573732464376451,-8.821917808219165,-4.49090684151924,0.3460207612456779,-0.688248420770725,1.861504095309012,-4.583991952866798,-1.022373684990372,-1.877649909145968
000088.SZ,,,,,-1.433065361761611,-1.91128741435268,3.68941403424163,-1.3165698019214795,-2.0876571847149257,-0.6382179952446413,-6.398256186690599,4.046242774566476,7.457707886585664,-2.9588482031515704,-2.006532897806818,-0.901984365604312,-1.6812910154860414,-9.670722778932088,-1.51394422310757,23.80668257756564,1.7563739376770582,4.712041884816763,15.003668378576664,-2.09563880572861,1.820054945054933,-4.785643070787641,1.272629503495262,-1.232378756981986,-2.2287443822801127,1.0948600709648233,1.9407959223681548,0.4075583549462727,7.145773785218455,13.911520596969472,3.2525782632574667,-6.190657045195583,-4.076738609112714,4.818890907148203,5.119646467020843,-1.972303818715904,-2.567068558971405,12.925310535248196,-5.8259361289664255,-23.77022478010643,2.542372881355906,2.657307595888701,-8.041998384677514,2.284188668051021,-11.800443142019873,-7.825403067243417,3.154732098147226,-3.452268944054433,0.4559031598805076,0.9325287986834858,-0.9761143959373044,-1.0821309655937903,0.6887736987857801,-0.0550660792951479,2.194562725188341,-2.2618231665524533,-0.6972321994506704,0.9373726395870088,2.4939766881552554,0.8447729672650546,5.1220166264414,-3.2629205209627647,-3.5878354599572777,-0.1989568209926553,-3.972968554144652,-2.275019612238043,-3.056976329249435,-0.1886915218947092,-0.2150537634408579,1.220719234576042,-4.098791382028385,-0.3282202424810763,-2.975420439844746,-5.166210965606561,2.1819842549015496,-3.2922810183202875,3.673250513897584,-3.501945525291842,-2.7005947158038226,-3.98463754200673,-2.129322133229148,12.639275766016716,1.91275421486354,-9.646442601484084,-1.1469142545057365,1.7207112859459446,0.3036716665132892,7.576023905783092,-3.699450414240007,-4.151198110023634,-2.1144732045205945
000089.SZ,2.9203956665096604,1.2972363226170271,-4.338153503893218,1.5722203370659416,-1.3372289021238373,-1.9474074921960247,-1.172947342151242,-3.274559193954664,-1.3488495107114489,-0.4802561366061921,-4.2597474677396905,4.990455413144277,5.644355644355664,-1.7560512577123963,-0.7839294463498291,-4.325699745547085,2.0721412125863483,-6.183932346723044,-0.0558347292015802,9.523842702211276,-2.8010533875987598,0.8638804576231558,2.9478458049886656,-1.152836434197013,-1.0763091063006365,-2.1857263615505205,-1.6141429669484932,-2.9938554059354208,0.0506149500466117,0.6004002668445738,3.745655811558759,-0.7577609386458117,3.483959986202134,5.332600329851575,9.743092583616097,-6.019606254557235,-2.0596530211093014,4.849498327759197,15.104804437081324,0.6155567991046504,24.37448379730846,-13.1204990950052,0.7391197035003456,-14.820285573609056,-4.43327582326907,6.959805772862151,-7.231685035657443,-1.1088892928558391,-3.304347826086961,-5.062403589959341,10.842076943771852,-1.8834866403854589,2.889095992544249,2.022444937886326,6.263398806419849,-1.6339510911284056,-0.8116428771340711,-1.7098856301664491,2.459016393442632,-3.474903474903483,-0.4241194910566185,1.8968871595330687,1.3268998793727338,-3.0674846625766983,6.721162579473203,-0.1175088131609861,-2.9903206618720684,1.8728078360128415,-0.0920810313075533,2.337993850438014,-0.988986289053726,0.7352515486597498,1.113485547182554,-0.7820973911057884,-0.5121563548596076,-2.1249999999999982,6.774046892251743,-4.1561041865475365,0.7363405729843485,-0.4823577964750962,5.500281584381452,-3.40800913879546,0.9792699987282132,-0.3135197389468165,2.541296060991102,10.65455176804214,4.7191480476091,-3.2432432432432337,-3.1332491679100127,3.5708044503990046,3.401871470098955,1.5727710960704946,2.805919977589986,-7.989851117813204,-2.171096948028412
000090.SZ,2.4282560706401792,2.451612903225817,-8.608414239482208,2.536166091640932,1.610017889087653,-2.233872556969439,-6.895293688434882,-3.6597279627264,-1.1014052411697768,2.003642987249556,-4.997377687869922,6.931530008453089,1.1966701352757605,-1.4929182084981598,5.631940772078274,-1.7561402412349196,5.414912634796169,-8.870665439392218,-0.5612318319182603,7.693371120481093,,-0.273679994659906,-0.1409301389168646,-4.606430548654974,1.0164190774042066,-0.8139885438649395,0.8201357466063174,2.81356823560345,-1.1286383737046963,6.300726649627789,2.180936995153473,1.991438674855763,,,20.847804791165725,9.523809523809527,3.258242289471147,-2.644154189232249,6.345057034220524,1.2586436315249825,12.066115702479328,-18.977614433678585,-5.565749235474003,-21.74575247498752,1.0990559391292043,5.103881743583765,-4.542927889231383,-7.414459011042812,-8.164433757013645,-9.019484600879956,4.004428861413563,-8.39748569814252,1.997726165340272,-0.214860185061106,-2.614668734766221,-0.560440125456329,4.224790753288166,-2.59117082533589,-1.0437179992122974,-0.8468052347960006,-2.655340065181399,2.779291553133522,-0.8166774124220852,2.7570162847102035,6.314908697150184,1.299592938609988,1.0231278479924335,4.976200778883616,-7.426508509540995,1.4735887553842375,-1.6236867239732518,-0.2830610319312886,-0.804534649844564,-4.540738178763784,-0.7156997106745869,-4.985529405340477,-2.302392022855861,-7.212922744819381,5.209135232229924,-1.4273719563392109,-0.2822201317027218,-2.882569162313792,-2.7870255873680225,-8.247731125959907,-2.4539252621932675,10.635924135366304,9.528331750553953,-7.668129133652019,-1.5973477998794363,1.6172126727577354,3.793515201616616,0.451671183378499,-5.296064729680036,,-1.495162708883047
000096.SZ,2.838529548627273,1.481718366911856,-8.333333333333329,0.203404346429714,-0.2886964246058121,-1.2056654570993866,-4.894750190210507,-0.1914486279515058,-2.328508495909389,-1.2127337038908583,-7.076101468624849,4.918032786885236,13.170303761377362,-3.992114342040409,-3.99329210774552,-6.052193225985551,1.5649952091983317,-10.51401869158879,0.6257822277847238,6.015485407980944,1.5118790496760148,23.44165133864705,7.207207207207205,-8.895573700042991,0.2007665632414666,19.269649713972257,-8.006302993922114,-9.098095012251996,0.6760609269365424,0.7194244604316559,12.271874463195347,0.8120974516942079,3.0779305828421584,-0.1789620202823668,0.7672981598424599,2.68378063010501,3.28513360431799,4.993269662201128,7.017543859649134,7.964215579314841,17.24887439838534,-21.893190525580497,14.718108662938702,-15.21676939481418,-4.035655837598799,4.20802551501938,-7.617008259406546,1.6004742145820952,0.6308662871210902,-3.3338407672400607,-3.184244432173755,-4.091113442229886,0.6874408265755433,0.2602400228321456,-3.514480963228117,9.176286441009584,-2.331508075903153,-2.568644818423376,2.426626745117153,-0.9669109036769324,2.523762700753852,3.6176864671728297,-2.205638973309661,-2.781107648046018,-0.9783575452119952,0.711342618967496,-0.6685100276504268,0.7640038024152455,-1.7171576155242254,-3.4773898111047443,-0.7416285864109602,-3.0045122711764827,1.198402130492674,-1.2571261511474887,-6.387538750047829,-7.467532467532478,-4.137900707972388,0.7680121710743035,1.691781455116954,-2.971142422275269,0.2932551319648063,-10.29111197039165,0.9775605421017588,-0.9795000802868896,-3.6566673965403913,8.1137929221223,-0.8571817315978039,2.4539877300613395,-0.4710834920316755,0.3060426775008414,-3.109107114769567,6.963545077493996,-3.04300204771655,-1.7111022682053325,6.33575464083939
000099.SZ,0.6987258528565479,2.4866225999370406,7.752956636005252,-0.8606236727394794,-2.774022603147126,1.811320286995496,-7.804382874544697,-4.408993844994355,-2.374336953776208,-1.424019767215025,-8.047547479163809,6.055375267555066,1.4026352541137903,0.089153046062398,-5.090595340811039,-3.752987533105098,4.665109525913765,-15.609720095309523,0.5402865867982033,5.139500734214387,0.727994705493069,-5.475659982445481,17.77012060054147,-0.3763820277581699,7.472296167894495,-3.614457831325303,-3.6705680495128346,-2.634664034059352,2.856426960661507,7.549071130792302,1.0590356016223414,-1.6533789929905474,8.48037450486137,8.078939253777357,4.977313350749339,-3.3120033752900606,-2.559448175712479,1.9481250703802464,11.411253129529594,3.34433759150281,6.639489459698882,-22.101250848868528,25.62749388595702,-22.08695652173913,2.332521793764223,1.3831118325386464,-6.222043989264904,-2.9292000525416952,-12.510785159620363,-9.073900841908332,20.521033525517822,5.128005602676821,4.861405605458971,-1.1708664330729772,-6.75772825305534,1.27060959007715,-2.706060488410938,-0.0509544153960841,0.969211007745916,-2.127126081323909,-0.5074453040512432,1.1559521395254553,-4.180480310503757,-4.894750190210511,,,,,,,-3.538584566173535,-0.5293339214821433,-3.025101909461501,-1.6472285679932768,2.888517545953676,-5.017502917152852,-7.022471426466641,-8.363950724011222,2.5600999063377987,-1.5338941118258342,1.8932314942715416,-0.9741710608633432,-0.4058167061210706,-4.122396940076501,-0.3207500616827106,12.930970009722529,-1.2611699093732036,-9.351552491917287,0.8147389760793314,1.8161018161018228,0.7174392935982375,13.95056556346878,-6.389491136334652,-1.258851298190402,-3.2839129832340235
000100.SZ,4.450733213275003,6.402579456471681,-9.913888275557523,-2.211874272409765,1.0462619020215982,-2.54440710513682,-3.192046049188893,-1.6741961201169242,1.5228426395939043,1.878055055312566,1.981633639439338,0.6433823529411682,1.4861995753715591,2.21109720483938,1.7871017871017882,4.777219694718675,-0.8207934336525342,-10.116808552761825,-3.2907991940899914,-2.0044543429844053,-0.675234153779141,5.062486761279383,0.1485253553999561,-0.6608399062033619,6.202209005947321,5.562939054490219,0.348624212342979,-6.169919179972398,-0.4869786152868786,-0.4149377593361195,,,0.5025125628140743,6.872794488321284,0.8975549365521323,0.4493787998942585,-1.4316482959584411,20.83283186905763,6.239308544161345,-0.9414495228820712,2.547668642845716,-16.80777442391225,-6.990179087232824,-16.479477230957723,-5.7853305010621,-1.102986739372909,-5.736207526488857,1.0676156583629934,-2.201810076995812,-1.2574454003970816,-1.225016118633134,-5.416816353175192,0.8453210737060638,-0.9036144578313304,0.6470165348670102,,,,,,1.7395117672854798,1.01290412099347,-1.175811870100787,,,,,-1.1217282924802598,,8.121574489287504,-9.307875894988053,-2.9367844698855112,-7.692307692307681,6.458481192334979,-5.603917301414588,-3.646605395790108,-1.8145717603108928,-3.2527105921601334,4.184754297621124,0.6507132546120734,1.5356820234869066,-1.8673023440603933,-2.1588433353139145,1.201995371217622e-14,1.2145748987854177,4.64927911874291,4.3835968633500535,-5.569542469502022,-3.0462800234329217,2.5088502385716582,0.8004743551734436,-2.201974183750939,-1.1660188784008938,-4.665314401622721,7.956142816980592
000151.SZ,-4.700991365526065,2.4830985025589274,-11.5391693761119,4.271518905665248,-0.0378644452858806,-6.334596643205188,-12.859942710688978,-1.178382771231211,1.6644908616187994,-2.205940909452907,6.934801691804329,0.6307760011735332,-0.0626348388892823,3.5734226689000463,-1.3611670634193902,-5.025955639452579,1.5797317436661718,-14.974407652454069,3.228640456841664,5.298913043478256,-1.487603305785129,-4.8112413391180455,3.949533735600648,-1.3446854517197335,2.7104136947218302,-0.0947610667388787,-0.8806325126952459,-4.350038158229465,4.245640636846095,-0.4211630713240921,38.74804530161588,-9.131433665946592,3.487064116985375,3.0689842476914606,4.249474874777837,4.036712373938599,4.624483760770928,8.908734480505357,2.3660934764064336,4.27080759508105,-4.022576256534804,-5.021409108602575,12.04701273261508,-17.327797137984724,-2.138278612320796,6.478107581099468,-8.950535115276088,-1.92616372391652,-7.672447662344946,5.116796440489414,2.5810357162511623,-7.467057101024901,1.6369850692570505,2.422147883615514,-7.730673316708216,-0.628150864044429,-1.8149024912636529,1.7934514342127008,0.2895498815477762,-1.1554568848075202,-5.791545264018814,3.189738498915852,14.234672356896525,-11.136428367986325,1.1656732950050062,-4.039963811350127,-3.573203733362781,1.221243964782718,-3.555419439262735,-5.248626898111438,-9.918543363679923,-1.7440236261324165,-3.3873575456445506,-1.68500208884558,17.72889890022526,-8.667794970986476,-9.398106326742292,-1.958772221048516,12.54415509734661,3.1658022737092564,-2.136457615437641,0.6922592825676549,-2.45440216167529,-7.610411873505666,-7.16316353637508,14.00225479143179,-0.7065961303688385,-9.06870442094981,1.0607199532280998,0.7660545319258214,-2.1477504165895067,0.0148831671379585,-5.619282706548569,-3.902389835635781,2.6854614672291413
000153.SZ,1.1865524060645931,2.2882254887103994,-10.524385771910524,3.172858503700453,0.1039861351819871,-2.0122484689413818,-9.600407598806331,0.568094580070622,-1.5163118394853827,-1.9772501717688264,-8.73849135842352,7.213765718067511,4.053058216654366,3.1396505185395718,3.4665255358560385,3.137304712307876,3.227153564206754,-14.532770187703674,-0.7152467955527246,-1.0202729561415251,1.703732605020172,-5.335297508486524,3.712753682209994,,,,,-3.857142857142847,0.1394904926216891,1.3119533527696756,3.917081706824612,9.010557328750313,7.894736842105253,15.391319504967752,9.630340196649426,-7.195190681946272,-2.040128140279891,2.526704131096888,,-4.142748461166049,12.264540079747016,-22.70446855676118,16.337986190452554,-12.71215794942848,1.7388486877632487,,,,,,,,2.5586916380902127,3.68061142397426,-1.8061324497129925,8.704831322185528,1.6500485308391468,0.7507251322300071,-0.8180359309561951,0.7897411838298338,,,,,,,-8.361862777282765,3.119802429313045,-1.9722710408123412,-3.654977990998566,-5.689149560117325,-0.3652853004156681,-4.872107186358108,0.3777657852131771,7.033639143730899,-4.555314533622564,-4.562206125301803,-5.257678292555961,-0.608062457773445,-2.2075515829065444,2.3301287273912505,-0.0459347726228741,-0.1465896352505002,-7.374100719424446,-7.157723282960825,10.001751620248726,0.9817671809256668,-8.026399829678516,-1.0678391959798914,1.132686084142402,-0.0709588593390867,4.184313061155355,-3.847667007632372,0.2722323049001882,-4.383710970956935
000155.SZ,3.3318325078793376,0.8011357874454835,-12.05380237972064,-4.024767801857589,-2.495201535508632,-2.263374485596713,-11.813643926788703,5.706403368665609,-3.513664249860576,3.406813627254518,-6.217345872518289,8.064078197121919,3.320176456930584,-0.9789580285810772,1.8706333107955768,-0.2055263758849038,13.46606722329265,-20.75720889280211,-3.966005665722382,,,,,-11.030030872859948,1.4380702025668708,3.926434097212085,11.177956924557822,10.62771908017403,-6.570657065706564,-2.418939783839412,,,6.538752840191854,9.968407609060955,-4.4648079547669965,-5.92381726989293,6.422018348623859,3.735760198561698,5.052621553407311,,11.737958908723472,-12.278241357548552,-16.90432254096069,-12.204472843450484,6.951871657754013,,-4.502204687862619,-6.532663316582902,-16.915635225494366,0.215053763440856,-1.4433238722145223,,,,,,,,,,,,,,,,,,,,,-27.819008858032067,-4.079933388842627,8.335436117419468,2.4278120959632186,-3.2677848467322232,-5.69459557490025,-11.142789261107149,3.6657469452108833,-1.5254471961320653,0.2331002331002381,-2.426432627774909,-0.0251193167545809,-4.774500727417011,-6.121328575349996,6.510451338037548,3.3775763461746084,-5.385301993454328,3.643724696356269,-2.0624495909667075,-0.6211180124223536,0.8597459258308833,-2.128700758502564,-4.630442966495172,3.217334208798436
000156.SZ,,,,,,,,,,70.40393204375903,-17.983557327819632,,9.027919298960668,3.384652611838721,-6.966406299612617,-3.4646918804549096,3.522187463793316,-7.733745952606104,13.128995942989432,-2.126378782245361,8.082358545493038,-12.976652272560948,2.618365907299061,-3.664136444569389,14.181720140199523,,,-4.421542553191476,-1.487579944171579,-3.793132973713492,2.324287676233851,3.925184404636462,0.1227832952549728,-3.693997047456326,-0.5202839212601367,-13.573793343788129,6.036228729344519,21.411628019557536,10.499729388417832,-2.7183529033295724,-3.205422794117651,-28.72864897166476,-5.424659177827452,-8.578977788787062,4.366230590982895,-2.363737019577583,-0.0202136426538836,-4.106184858717413,-15.643329452340682,-15.61181434599158,10.630722278738544,-7.513615113981407,3.800971268889567,0.6511123168746593,-3.558535327488383,0.0734153066644298,-3.965039437220229,0.9839871263882513,-0.4121059401002763,-3.165634884161022,-1.4028736282384753,1.8190073498113084,-2.8792436613665746,-2.699140229471852,-3.460656228183893,0.9478672985782096,0.9544154635978234,1.5146507828702584,-2.0266829616050464,-2.691439486021876,-2.7889612766269143,,,,,,,,-2.16118386032152,-0.4910680264722541,4.040168145726295,-1.6928657799274356,0.6260928422358577,-6.85382040288953,-2.8645526346811407,11.456138405234556,6.013827890594416,-4.722001089370261,4.166666666666671,-0.4520795660036188,0.6440449870229773,2.3610075001614645,-6.7636218746887184,-8.03136257681714,-0.3622112701146122
000157.SZ,11.423679060665371,3.6101667476121055,-8.616050229515118,3.2937252449447665,5.5190858254315724,,-0.4717225649266413,-9.706796979120398,2.8148854961831846,-3.196030921887622,-3.0192131747484043,3.868275628735769,2.1478659378278366,-1.0287523080981178,-5.132743362831863,-4.249936756893484,-3.598006417696471,-15.076634344698162,-0.6549107904060916,-0.1316531878879179,-2.7418520434557743,0.5086826872478483,1.7671609981351593,-2.903972920007124,-1.1354737666405763,-2.16221504745133,-1.0564811052417602,-7.390371051824593,-0.8318739054290546,-0.7727629073804432,4.785112981834308,-1.249386731263291,1.0226216299968838,0.8803728638011264,1.8052678307191603,10.51972448340639,-4.821150855365484,2.909748479368735,10.799969726784228,0.1018848700967942,13.786952089704393,-13.363956842217714,-4.473327485846398,-10.47619549707637,-5.357989568515881,-0.9094353921939996,-6.908825408414717,-1.7086165717435244,-7.933814170555794,-5.499075785582261,1.8981018981019069,-5.737253606431013,0.8240426563257385,0.449957436458701,-0.9713338071547104,0.935399171531646,2.6266208578078167,0.0547345374931587,0.1578116780641784,-0.0770331242434096,-0.1864648458922951,2.002107481559539,-1.0863942058975615,-4.832556167867747,1.1171254174824323,1.1489074115791806,3.266142071790461,-1.043258688284925,-1.527640400043967,0.3894418000865287,-1.862384297981496,3.7965865552072406,-2.1253405994550505,-1.7898118402937289,-1.196902135648907,0.4904892929776288,-1.7783535508185355,-0.4360465116279125,2.803738317756995,-1.5634687330452837,0.0535045478865618,-1.3876586950103458,-0.907187718073977,-2.532511978097189,1.362397820163486,6.261859582542707,1.2429378531073343,-4.495465946363116,5.677457443668204,6.68323422383953,3.610411418975634,-2.439024390243902,-2.229845626072045,-1.6310744913401716,-0.882891887389625
000158.SZ,0.1540832049306452,5.672838778157826,-11.202654765991516,3.64546104360256,-2.598922968859757,-4.628330995792412,-5.698005698005698,-4.581266413772978,-2.7946537059538343,-2.2997144145498307,-4.820957991009161,4.404065291037895,1.4984450098953876,5.55703270406806,0.3686526340825332,-4.656045448931722,2.538451919469807,-13.995726495726489,-2.7355623100304087,5.090760201992651,9.863864342010984,0.6354828627982084,2.3044331921049834,-0.6717850287908003,5.702023298589824,1.7423101742310094,16.59902999109174,-9.082475183226643,-3.741067675493913,,,,,6.92288741069228,25.70787776843287,-8.172547517594676,7.370675606462724,12.931607554843012,-0.7409149711866501,-0.8308197068317658,25.52604017899648,-31.082229285332165,-10.972276454509943,-16.98413224235597,6.726135956353798,5.855068780379313,-6.948024054982816,2.944152165115344,-17.26025474578056,-12.248628884826324,4.980385468190351,2.59998526920527,10.499335485095887,2.212680511736981,-1.3517921211901591,0.1601072346129464,0.689241833982613,-2.7541389447624995,3.184380483070137,0.1401962747846927,-2.9548458619366427,-1.6681299385425772,-5.7382172771596665,9.878129502005214,-2.0065328978068093,1.836932001289086,-8.12827307781676,-1.7055866184278496,-0.8449652210447942,-6.146538073988771,-9.07082090376754,-3.4885134313844546,-1.6036308623297997,-1.4111985432789231,3.2570590859838235,3.463730072347784,,-11.53424693208391,-2.482412872968384,-3.8798042670723065,1.777497067580961,-2.84613738497752,-0.4070813215942346,-0.6754828275140465,-10.187667560321712,10.613993336506429,2.641056422569032,-9.273570324574962,-1.488919667590014,-1.5708707890674638,0.922613443795896,4.537277633419962,-3.7461910736691264,6.2530139848898845,-6.191674105331489
000159.SZ,4.736687260959101,6.935052681239186,-11.04186560788058,4.246900553943572,-1.1175034392579282,-8.342035038867627,-4.942965779467678,-5.736636245110828,-0.0400846248400726,-2.347808019945972,-12.596795215824562,5.565588573304876,11.640172881107612,-2.72399972827934,-7.032719067318529,-3.9400846629762287,3.683921137381181,-14.634717366481024,2.3399331447672926,2.893890675241157,12.57350882105853,-7.8438616480038705,9.27653138391733,-3.9925842547838144,-0.9945412398115714,5.598228496297833,-0.9359841497574644,-0.2414538060744825,4.042841169893491,-3.681125616293188,4.870775347912533,-0.9215237424429212,,2.7627401969955767,-1.3597384753873212,-7.119046531805092,0.2295332823259454,2.794883941260065,5.943816375471043,-3.730445246690744,-1.8197828001173864,-16.813793767870685,-2.82057359563879,-11.96988151921161,-0.9039169735520696,0.1031365649456961,-5.852930334521774,5.952720022785528,-13.371773750686446,,,,,,,-0.960219478738002,6.448850536855282,-0.6476842233899404,-2.5781157181893737,1.726179227378535,1.1110457938980611,6.09914352452634,-0.3171726325328448,-10.927508347009216,-9.20881971465628,2.761430511543692,-2.8733008683432955,0.8582061213640164,-1.9979582907977205,-5.683376504647261,-4.434513578549336,-0.7171268998877588,0.4497751124437935,-3.699731903485246,-0.6968641114982613,-4.664623765747346,-5.152758777929795,-4.362635922966068,12.057127162867346,-6.004541363670387,1.2970969734403948,0.5660128998288931,-6.476352790796765,-3.1110090689932126,-5.521180390290349,9.45500056889293,32.00367405852251,-14.18720469927212,-4.940923737916212,-4.690054067647435,-3.5150229988821424,0.7697690692792046,-10.869716593552,-7.558369608231088,2.1157545025354265
000166.SZ,,,,,,,,,,,,,,,,,,,,,,,,,,,,,,,,,,,,,,-2.5144589119475422,4.8602673147023125,-2.2160068846815784,3.4149039126227,-10.890546172406216,-5.43094533395143,-23.249826310842288,-4.150142434228893,3.879448541199097,-8.006362672322366,-1.3766748008655991,-7.70629688565584,-7.621534253388035,5.238236164545733,-2.935058932285643,5.295604463349967,2.218170768763284,-2.7017673757471385,1.1200995644057206,-0.4136175628380529,1.144738905441416,1.3845139550216274,,,0.1327813793642232,-1.226700653178259,-3.36031395634044,2.113937656753853,0.3167381068483157,2.3731162307292526,3.357416064598377,-1.9508913555331249,-2.7287595764827284,0.4784688995215234,-0.1765963379496131,-1.82585558308103,-3.895855269455363,-0.5900590059005945,-3.684483653347173,-3.814262023217262,-2.382421954421081,1.208114884887182,1.6901289195264064,0.7274762171236882,4.756312389900181,-1.7373022020581992,-4.950957496496968,1.0863350485991874,13.01756909483201,-1.4901400910145473,-7.0776462080809965,0.6599950810786394,2.6429010448678527,-0.7106598984771719,0.9183996621978416,-3.483089348813719,-0.7459593866556032,-0.1677852348993304
000301.SZ,2.2608695652173854,2.0702936928261884,-8.100426338228308,6.432931601189538,0.6659439368127649,-3.6066634319909294,-2.4810475534114467,-1.2978142076502746,-0.1538724568302362,1.2546691245119106,-3.823676740691266,3.482920294708628,2.4405908798972336,-0.758533501896328,-2.6069847515986257,-1.3346849129920586,5.7567917205692165,-10.156895127993396,3.823219922834106,1.5409570154095815,-0.4959702417854918,1.0071090047393567,1.9166413142683405,-1.7393957888312428,1.567602873938599,0.4408060453400528,-0.5830009205277631,-5.867970660146699,-0.6436705727017725,0.6997781191329627,3.887510339123248,-0.3866976024748679,8.418034923117045,0.4060538944259785,5.481120584652869,10.402938316949342,0.1036269430051996,5.703499642893566,7.326422162209253,-3.866809881847462,6.054661958938141,-17.913009365958906,-2.1592442645074272,-16.70096304222571,-2.9207816768228496,4.197098062128738,0.5126481216909007,3.243416827231849,-14.22257934913619,-6.783468104222827,2.4241100677003846,-3.052064631956916,0.6539000467071568,1.6193381835249925,-2.3975649220965405,3.097345132743365,-0.3957783641161035,1.8998272884283165,0.3577298656095979,3.601859024012381,-2.9051249879355314,0.7864841246723074,,,,,,,,-4.052086010451469,,-3.66473149492017,-1.0528117777967871,10.888443553774204,4.447852760736192,-4.906584378484218,6.901430592674098,,0.71942446043165,2.9152279553237195,2.8249471789654925,-5.993962915049585,-5.299356317785027,-0.2648643711754481,-5.88690937257938,5.871973335947452,1.0866818296689424,-5.4204419011285845,-2.3842917251051814,-1.0056854184040431,-1.4097656614695253,-0.6661442006269687,-3.817365269461072,-1.3776722090261226,-0.575511014090098
000333.SZ,,,,,,,,,,,,,,,,,,,,,,4.409353697471734,2.7240858070948413,0.8827238335435057,-1.1215091313843224,-12.897597637900963,8.808727869564683,-2.9123483541363684,2.3111032801809084,5.530520278574332,8.815146579804564,1.6800314283733595,-5.819404327856448,3.714363695010292,2.2924425732725746,3.805704774154498,-3.370605743705252,3.912404419415044,5.568371139305401,8.312843383286658,2.2480759399223387,-0.1031659900585493,-4.020151425221144,-6.589662892183917,-4.5276521673320325,3.485858903072065,-6.849980904766876,6.88986956309336,-3.760087394721077,-4.150887900290439,3.2135030696398346,4.572182496375817,,3.4136983912455983,5.879702635728763,-0.6724547316524978,1.734495941543163,2.1829130598419213,8.334376844779175,-1.5086621331049004,3.224470068356006,2.3088532802414825,-1.5084294587400209,0.471613635006864,2.612617627704229,4.93210132384133,-1.8884099730907475,1.2670733815792663,4.955645017635105,6.5752766255341895,-3.6303381788054616,2.4489418722853724,-0.0668225860340795,-3.7602676147608407,-5.494753078396193,-0.722299062548028,-0.0066145690608247,-3.56862564055215,0.8269888499454664,-2.7591107664019274,,,-4.369963913193933,-4.160166406656284,7.161320499249176,4.9648506151142335,2.08014747470514,-0.5145146285432204,,1.6603610844294554,1.5473438964848265,2.684824902723756,-3.577628500264181,4.286063248088087,-4.883688340807176
000338.SZ,4.90646613749246,1.58397696033511,-9.534022226554889,4.018467046685817,1.2912046179553551,,-9.972595284834116,-8.888041960738253,3.022562792677735,-0.1335534628255396,4.957793365830448,2.75668872558969,0.4425866732235121,0.3080666365794752,-5.276443106082422,-1.48490422143467,0.2392864911899193,-15.460702626321698,0.242199743553211,2.545559447463943,-2.453771350833886,-3.279458222525324,5.177000204624511,-3.3619856568841877,-1.327845282061403,-1.6097657241126682,0.540769161052545,-2.5402057168835563,0.4758471521268835,0.6051009444098671,8.929702343255231,-0.4240089612116295,-0.8167457328703386,1.8352288731674569,3.805899143672692,4.99384425977224,-5.5979277593898535,1.9854739916181607,10.776640577965075,-5.703854440986353,-1.2092247490136987,-6.522188431899377,-6.189959067747053,-15.014310463804954,-6.668128975652564,-0.3952739265290658,-5.586311021640659,-1.7493897477624043,-11.877628130903766,-3.594881863110144,0.8802047568512537,-2.875090601594599,2.398761929326784,0.8197250371135221,7.46202152113803,-1.5938246237574325,2.8648014742838224,3.128241649022998,0.3048480676566108,-3.4322280395578706,5.78433706260414,-1.529051987767581,-1.2334840437206402,-1.9573575672841577,2.663170967296811,9.348465393695903,4.005434076498054,4.628351376880031,0.3685092127303155,9.650505143474536,-5.354339863961384,5.690026612596616,-1.2984093080771162,-0.7762796941574697,0.2974925626859342,-1.4655069700941297,3.234198545497553,-2.78857904677259,3.0491246403914185,2.70894851713957,5.915144007432639,-5.0122583324115535,0.0532197977647532,0.0844869045297983,8.058608058608046,3.2787770755685264,7.541519194119257,-6.2867549417612,0.0641436818473164,1.5366820885657615,1.1741560399980082,3.791341758537247,-4.830569574621499,-0.7405902894100642,2.070032888372988
000400.SZ,-8.376127890445929,0.0429830217064231,-8.785486309423812,5.865026422940292,4.221635883905018,-9.660345062860705,-2.068531027965435,9.247967479674813,,,,,8.544052089306522,-3.545002372708581,-2.588417615261149,7.5747098510475235,4.9583732220704455,-2.3475532797230705,-7.126198497019956,0.9252829944935228,-1.066687130688363,-4.462418276754781,-1.3310695007288096,1.860952755389566,1.1911036154738055,5.065666041275805,-10.146287121456426,-8.279194802701078,2.491772449459341,3.663299471676186,4.130808950086055,-2.13561005605089,-0.7055134570159459,-0.7297160609782378,-1.7865955976705257,-3.934883941035877,1.1811614396879002,3.1681048056937557,7.979356887653823,-3.917146913889584,1.7915444405774033,-20.0444903471836,-6.197076093032773,-9.56984050265828,-4.515064942714921,1.1082514837964237,-8.700191826724614,3.304357072600141,-14.981077906825004,-9.52134349337871,8.06975615220882,0.3436426116838454,-0.5870035357522815,2.171955027836518,-0.0783576241968323,-1.2681159420290036,-0.8667388949078981,8.53772120459484,-2.5127087872185947,2.6757934038581173,-0.5573161403125397,-0.5836629692124892,0.6665527260297464,-1.3022618231665604,-3.16294408634388,6.140299036699951,-3.14770593611245,1.4928967011798726,-5.485232067510555,-6.441098866987423,-4.515173945225763,-2.147705775436777,-5.550299590034692,-0.6379445949488826,-4.060290444133961,-8.982035928143707,-8.475102125239175,-4.502049942418494,4.353352399110263,-1.4632801951346863,7.132493761244253,2.745792736935323,-3.196149478124497,-2.4577572964669736,-3.5798150189294167,3.639092102794975,-5.034939974914888,-8.264617691154431,-0.5134433832054242,-0.1527483623962643,-2.140672782874606,4.671280276816606,-4.016337644656225,-4.001691600148023,1.9302582443591212
000401.SZ,3.592362602286577,5.376166487736394,-7.4340793263904335,-0.0265041081367637,1.965668489738437,-12.344139650872828,2.2296848764106314,-12.089717783346336,6.212781086125661,-8.695652173913027,5.882352941176461,4.052780395852967,,,,,,,,,,,,,,,,,,,,,,,,,,,,,,,,,,,,,,,,,,,,,,,,,,,,,,,,,,,,,,,,,,,,,,,,,,,,,,,,,,,
000402.SZ,1.0388739946380785,3.154574132492113,-2.423913885231947,4.673769344428039,4.217266504747204,-1.904003543714956,-1.6344725111441256,-7.127255076450126,2.7573214591539656,-2.271393847959088,-0.6060606060606198,9.55124563823746,,,,,,,,,,,,,,,,,,,,,,,,,,,,,,,,,,,,,,,,,,,,,,,,,,,,,,,,,,,,,,,,,,,,,,,,,,,,,,,,,,,
000403.SZ,,,,,,,,,,,,,,84.31294883914241,-4.315876630097299,,,-10.619703389830502,5.159798549301579,0.9578656637480352,-2.5427590606677604,-6.3536365128878725,2.168268893410998,2.2605301675069307,3.4899285038033536,-4.776550918094304,6.084796877771883,-9.330137307521971,-1.4443993271071396,2.62992925161946,-0.0968508789950997,1.2599965479546869,14.756546848551215,5.502915451895035,4.201064024949559,-4.429530201342256,,,,,,,,,,,18.52671164694171,-0.100444338514449,3.7238910695763754,-7.632020899421538,7.856545855178172,7.008236772302098,0.0637776509684135,-2.997918339917054,3.7868644213272953,3.0975003431499664,2.837952317560207,-1.0225795011230607,4.799951940406102,-4.895794080987853,-3.412275223775448,4.440497335701593,-5.634064708069913,-1.8063769606582507,-4.025983296452271,,,,,-0.9844533516695584,1.3109062612235372,-6.55204387936318,0.5950228475623917,2.543068088597216,0.9697941027360242,2.562479226349708,-5.592293754162075,-1.151093373792023,-1.9372478410189784,-1.981857806398596,-3.5046063253870336,-0.6906513790457125,-0.7630630979587069,-2.6953917495894077,-4.19910222171714,5.634733364794707,3.546279031878505,3.3444230432498605,-9.874202998449068,2.424428417983746,-0.7164417936502141,9.98047786051172,4.066226845978178,2.034338479295913,-4.609725948928229
000404.SZ,2.861035422343338,7.442748091603045,-15.482423335826494,-1.4738542297597403,-0.9679062659195052,-2.9655473179241283,8.797015853279442,-7.943289959215368,1.0495986828565511,1.449275362318853,-8.636149126946679,6.561871687077309,4.044357469015016,-3.979378121475753,-3.0082987551867126,-4.518192722910848,-1.0193759240525933,-11.848980279790988,5.40891389009088,-3.8076152304609376,0.7287449392712507,-1.9452791396489049,1.640453238626749,2.176441269313839,9.815950920245395,-13.237731498162429,-5.098435133770829,-5.288627722087791,-1.086956521739135,0.0237695978323848,3.757661899262693,0.1710236989982771,3.1021209147860245,0.7183588832111364,3.304554927061623,10.578896948131922,-2.376693074367489,2.2697281604644965,4.8820369072646566,2.182231875064645,8.676486041437041,-11.066037367866755,-6.787027749916419,-10.530026276998012,5.6411791111776,4.44058546266435,0.3961516694963098,-2.4822695035460995,-8.637760327756919,-3.246521584017141,8.371854134566002,-0.2599858189553229,-2.409121559492423,11.085450346420316,-3.5462453034124235,-1.993518609447124,9.440382581505483,-4.0180436053796615,-7.63243243243243,-2.903194484901444,-1.7320607988688543,2.1018029684231565,-6.29617272770602,3.875188726723694,-6.428896679010302,2.473958333333321,-1.3702257231746786,1.9073936779672476,0.012955045990408,-7.195789182076311,0.9929951504887988,-1.887381063796597,-6.4014708340297535,-0.9864135492276042,-0.3791795932437052,-3.166080355489709,-5.438235843767529,-4.940220883277799,2.903600464576068,-2.962856039371536,0.1189060642092764,0.9126466753585536,-0.9852815959128997,-3.572320759430419,-5.584621000121657,8.017684311148283,-1.8442622950819836,-8.31174008371536,-0.6580725461997047,-0.2946375957572041,-0.1795332136445282,1.4879816863792337,-3.803131991051464,-1.4048531289910458,-0.9693476552266288
